{"learner":{"attributes":{},"feature_names":[],"feature_types":[],"gradient_booster":{"model":{"cats":{"enc":[],"feature_segments":[],"sorted_idx":[]},"gbtree_model_param":{"num_parallel_tree":"1","num_trees":"8"},"iteration_indptr":[0,1,2,3,4,5,6,7,8],"tree_info":[0,0,0,0,0,0,0,0],"trees":[{"base_weights":[4.2207972E-8,1E0,-1E0,-5E-2,1E0,-1E0,6.852979E-2,1E0,-8.6867905E-1,1E0,-1E0,1E0,-1E0,1E0,-5E-2,1E0,-5E-2,-5E-2,5E-2,-3.039158E-1,-1E0,1E0,-5E-2,-1E0,1E0,1E0,-5E-2,-5E-2,5E-2,1E0,-1E0,-1E0,-3.4997192E-1,-5E-2,1E0,1E0,-1E0,-5E-2,1E0,-5E-2,1E0,1E0,-5E-2,1E0,-5E-2,-1E0,-4.570604E-1,-5E-2,1E0,1E0,-5E-2,5E-2,-5E-2,4.5832467E-1,-5E-2,5E-2,-2.5925925E-2,1E0,-5E-2,-5E-2,1E0,5E-2,-5E-2,-1E0,-6.0021406E-1,-5E-2,1E0,5E-2,-5E-2,1E0,-5E-2,-5E-2,1E0,5E-2,-5E-2,5E-2,-3.548387E-2,-3.667671E-2,-5E-2,-5E-2,5E-2,-5E-2,5E-2,5E-2,-5E-2,-3.548387E-2,5E-2],"categories":[],"categories_nodes":[],"categories_segments":[],"categories_sizes":[],"default_left":[0,0,0,0,0,0,0,0,0,0,0,0,0,0,0,0,0,0,0,0,0,0,0,0,0,0,0,0,0,0,0,0,0,0,0,0,0,0,0,0,0,0,0,0,0,0,0,0,0,0,0,0,0,0,0,0,0,0,0,0,0,0,0,0,0,0,0,0,0,0,0,0,0,0,0,0,0,0,0,0,0,0,0,0,0,0,0],"id":0,"left_children":[1,3,5,-1,7,9,11,13,15,17,19,21,23,25,-1,27,-1,-1,-1,29,31,33,-1,35,37,39,-1,-1,-1,41,43,45,47,-1,49,51,53,-1,55,-1,57,59,-1,61,-1,63,65,-1,67,69,-1,-1,-1,71,-1,-1,-1,73,-1,-1,75,-1,-1,77,79,-1,81,-1,-1,83,-1,-1,85,-1,-1,-1,-1,-1,-1,-1,-1,-1,-1,-1,-1,-1,-1],"loss_changes":[3.034212E5,3.489E3,7.0241562E3,0E0,1.8111719E3,1.8005938E3,7.854238E3,1.419E3,1.0988308E3,4.9700006E2,8.2403125E2,1.2570002E3,1.8706001E3,6.69E2,0E0,3.5E1,0E0,0E0,0E0,3.501164E3,1.4567188E2,6.37E2,0E0,1.0157998E3,4.19E2,2.79E2,0E0,0E0,0E0,1.99E2,9.3380005E2,1.07421875E2,9.3712354E2,0E0,4.91E2,1.31E2,5.0402832E2,0E0,1.0564819E1,0E0,1.53E2,4.3E1,0E0,2.11E2,0E0,6.21875E1,9.973844E2,0E0,5.9E1,3.97E2,0E0,0E0,0E0,6.2077185E2,0E0,0E0,0E0,8.7E1,0E0,0E0,1.7653198E1,0E0,0E0,2.7984375E1,1.056616E3,0E0,3.5E1,0E0,0E0,3.27E2,0E0,0E0,1.7653229E1,0E0,0E0,0E0,0E0,0E0,0E0,0E0,0E0,0E0,0E0,0E0,0E0,0E0,0E0],"parents":[2147483647,0,0,1,1,2,2,4,4,5,5,6,6,7,7,8,8,9,9,10,10,11,11,12,12,13,13,15,15,19,19,20,20,21,21,23,23,24,24,25,25,29,29,30,30,31,31,32,32,34,34,35,35,36,36,38,38,40,40,41,41,43,43,45,45,46,46,48,48,49,49,53,53,57,57,60,60,63,63,64,64,66,66,69,69,72,72],"right_children":[2,4,6,-1,8,10,12,14,16,18,20,22,24,26,-1,28,-1,-1,-1,30,32,34,-1,36,38,40,-1,-1,-1,42,44,46,48,-1,50,52,54,-1,56,-1,58,60,-1,62,-1,64,66,-1,68,70,-1,-1,-1,72,-1,-1,-1,74,-1,-1,76,-1,-1,78,80,-1,82,-1,-1,84,-1,-1,86,-1,-1,-1,-1,-1,-1,-1,-1,-1,-1,-1,-1,-1,-1],"split_conditions":[-1.8675427E0,-5.373378E-1,1.7969394E0,-5E-2,9.80064E-1,-1.9094715E0,-9.076433E-2,1.0119544E0,-5.296081E-1,1.8951354E0,-1.2853122E0,7.604793E-1,1.8117768E0,5.06653E-1,-5E-2,1.4686525E0,-5E-2,-5E-2,5E-2,-1.5701054E0,2.6151826E0,-5.9542465E-1,-5E-2,-3.5532658E0,5.3132844E-1,-4.065672E-1,-5E-2,-5E-2,5E-2,-3.6232728E-1,-3.5177857E-1,1.7297868E0,4.0001482E-1,-5E-2,9.894215E-1,-7.677297E-1,-2.6995976E0,-5E-2,5.588904E-1,-5E-2,9.136251E-1,-1.7348891E-1,-5E-2,-3.5532658E0,-5E-2,2.4441254E0,1.2198145E0,-5E-2,4.085011E-1,1.3066773E0,-5E-2,5E-2,-5E-2,2.0727463E0,-5E-2,5E-2,-2.5925925E-2,1.587343E0,-5E-2,-5E-2,2.1050191E-1,5E-2,-5E-2,-2.6584058E0,1.2027749E0,-5E-2,5.3681624E-1,5E-2,-5E-2,8.699383E-1,-5E-2,-5E-2,5.3132844E-1,5E-2,-5E-2,5E-2,-3.548387E-2,-3.667671E-2,-5E-2,-5E-2,5E-2,-5E-2,5E-2,5E-2,-5E-2,-3.548387E-2,5E-2],"split_indices":[14,4,4,0,1,17,8,10,4,2,20,21,17,3,0,0,0,0,0,13,27,23,0,25,1,4,0,0,0,6,29,4,3,0,1,16,15,0,1,0,12,4,0,25,0,7,12,0,3,0,0,0,0,6,0,0,0,0,0,0,10,0,0,19,10,0,1,0,0,27,0,0,1,0,0,0,0,0,0,0,0,0,0,0,0,0,0],"split_type":[0,0,0,0,0,0,0,0,0,0,0,0,0,0,0,0,0,0,0,0,0,0,0,0,0,0,0,0,0,0,0,0,0,0,0,0,0,0,0,0,0,0,0,0,0,0,0,0,0,0,0,0,0,0,0,0,0,0,0,0,0,0,0,0,0,0,0,0,0,0,0,0,0,0,0,0,0,0,0,0,0,0,0,0,0,0,0],"sum_hessian":[1.25802E5,5.7398652E4,6.840335E4,4.3675E2,5.6961902E4,6.22519E4,6.15145E3,5.64468E4,5.151E2,3.527E2,6.18992E4,3.34455E3,2.8069E3,5.62688E4,1.78E2,1.501E2,3.65E2,6.275E1,2.8995E2,1.706E3,6.01932E4,3.1868E3,1.5775E2,2.46295E3,3.4395E2,5.618455E4,8.425E1,5E0,1.451E2,6.149E2,1.0911E3,5.98416E4,3.516E2,8.025E1,3.10655E3,1.616E2,2.30135E3,5.3E1,2.9095E2,3.55E1,5.614905E4,5.894E2,2.55E1,1.7185E2,9.1925E2,5.946525E4,3.7635E2,1.99E2,1.526E2,3.04455E3,6.2E1,1.446E2,1.7E1,2.3435E2,2.067E3,2.892E2,1.75E0,5.61293E4,1.975E1,6E0,5.834E2,1.4485E2,2.7E1,5.90499E4,4.1535E2,2.265E2,1.4985E2,1.446E2,8E0,2.9943E3,5.025E1,8.7E1,1.4735E2,5.61178E4,1.15E1,5.8065E2,2.75E0,4.596E2,5.85903E4,2.6725E2,1.481E2,5E0,1.4485E2,2.9528E3,4.15E1,2.75E0,1.446E2],"tree_param":{"num_deleted":"0","num_feature":"30","num_nodes":"87","size_leaf_vector":"1"}},{"base_weights":[1.2655404E-3,1E0,-1E0,-5E-2,1E0,-1E0,2.9705444E-2,1E0,-8.475872E-1,1E0,-1E0,1E0,-1E0,1E0,-5E-2,1E0,-5E-2,-5E-2,5E-2,-2.9182437E-1,-1E0,1E0,-5E-2,-1E0,4.9047038E-1,1E0,-5E-2,5E-2,-4.9015522E-2,1E0,-1E0,-1E0,-3.3804196E-1,-5E-2,1E0,1E0,-5E-2,-5E-2,1E0,-5E-2,1E0,1E0,-5E-2,1E0,-5E-2,-1E0,-5.8640635E-1,-5E-2,1E0,1E0,-5E-2,5E-2,-5E-2,-5E-2,1E0,1E0,-5E-2,-5E-2,1E0,5E-2,-5E-2,-6.9748825E-1,-1E0,-5E-2,1E0,5E-2,-5E-2,1E0,-5E-2,-5E-2,1E0,5E-2,-5E-2,5E-2,-3.6727507E-2,5E-2,-5E-2,-5E-2,-4.004386E-2,-4.2216524E-2,5E-2,-5E-2,5E-2,5E-2,-4.0192466E-2],"categories":[],"categories_nodes":[],"categories_segments":[],"categories_sizes":[],"default_left":[0,0,0,0,0,0,0,0,0,0,0,0,0,0,0,0,0,0,0,0,0,0,0,0,0,0,0,0,0,0,0,0,0,0,0,0,0,0,0,0,0,0,0,0,0,0,0,0,0,0,0,0,0,0,0,0,0,0,0,0,0,0,0,0,0,0,0,0,0,0,0,0,0,0,0,0,0,0,0,0,0,0,0,0,0],"id":1,"left_children":[1,3,5,-1,7,9,11,13,15,17,19,21,23,25,-1,27,-1,-1,-1,29,31,33,-1,35,37,39,-1,-1,-1,41,43,45,47,-1,49,51,-1,-1,53,-1,55,57,-1,59,-1,61,63,-1,65,67,-1,-1,-1,-1,69,71,-1,-1,73,-1,-1,75,77,-1,79,-1,-1,81,-1,-1,83,-1,-1,-1,-1,-1,-1,-1,-1,-1,-1,-1,-1,-1,-1],"loss_changes":[2.9215812E5,3.4016875E3,6.9239844E3,0E0,1.7692969E3,1.7590938E3,6.9528604E3,1.3833906E3,1.0677117E3,4.8085254E2,8.5003125E2,1.3034573E3,2.056162E3,6.5215625E2,0E0,3.420404E1,0E0,0E0,0E0,3.3696353E3,1.5082812E2,6.443535E2,0E0,9.9028564E2,2.0766094E3,2.7189062E2,0E0,0E0,0E0,1.9000098E2,9.121848E2,6.6859375E1,9.066025E2,0E0,4.7860205E2,1.2565073E2,0E0,0E0,2.7794775E2,0E0,1.4904688E2,4.245813E1,0E0,2.0365112E2,0E0,3.75E1,1.0223257E3,0E0,5.5450317E1,4.2339893E2,0E0,0E0,0E0,0E0,4.3750366E1,8.4703125E1,0E0,0E0,1.906543E1,0E0,0E0,1.0519755E3,1.5265625E1,0E0,2.3905792E1,0E0,0E0,3.5575195E2,0E0,0E0,2.2651245E1,0E0,0E0,0E0,0E0,0E0,0E0,0E0,0E0,0E0,0E0,0E0,0E0,0E0,0E0],"parents":[2147483647,0,0,1,1,2,2,4,4,5,5,6,6,7,7,8,8,9,9,10,10,11,11,12,12,13,13,15,15,19,19,20,20,21,21,23,23,24,24,25,25,29,29,30,30,31,31,32,32,34,34,35,35,38,38,40,40,41,41,43,43,45,45,46,46,48,48,49,49,54,54,55,55,58,58,61,61,62,62,64,64,67,67,70,70],"right_children":[2,4,6,-1,8,10,12,14,16,18,20,22,24,26,-1,28,-1,-1,-1,30,32,34,-1,36,38,40,-1,-1,-1,42,44,46,48,-1,50,52,-1,-1,54,-1,56,58,-1,60,-1,62,64,-1,66,68,-1,-1,-1,-1,70,72,-1,-1,74,-1,-1,76,78,-1,80,-1,-1,82,-1,-1,84,-1,-1,-1,-1,-1,-1,-1,-1,-1,-1,-1,-1,-1,-1],"split_conditions":[-1.8675427E0,-5.373378E-1,1.7297868E0,-5E-2,9.80064E-1,-1.9094715E0,-9.076433E-2,1.0119544E0,-5.296081E-1,1.8022078E0,-1.2853122E0,7.604793E-1,7.504741E-1,5.06653E-1,-5E-2,-8.624584E-1,-5E-2,-5E-2,5E-2,-1.5701054E0,2.6151826E0,-5.9542465E-1,-5E-2,-3.5532658E0,5.489235E-1,-4.065672E-1,-5E-2,5E-2,-4.9015522E-2,-3.6232728E-1,-3.5177857E-1,2.4441254E0,4.0001482E-1,-5E-2,9.894215E-1,-7.677297E-1,-5E-2,-5E-2,1.6292486E-2,-5E-2,9.136251E-1,-3.1991887E-1,-5E-2,-3.5532658E0,-5E-2,-2.6584058E0,1.2027749E0,-5E-2,4.085011E-1,1.3283789E0,-5E-2,5E-2,-5E-2,-5E-2,-7.01798E-3,1.587343E0,-5E-2,-5E-2,2.1050191E-1,5E-2,-5E-2,-1.2051466E0,3.4930341E0,-5E-2,8.2220525E-1,5E-2,-5E-2,1.7969394E0,-5E-2,-5E-2,1.1381637E-2,5E-2,-5E-2,5E-2,-3.6727507E-2,5E-2,-5E-2,-5E-2,-4.004386E-2,-4.2216524E-2,5E-2,-5E-2,5E-2,5E-2,-4.0192466E-2],"split_indices":[14,4,4,0,1,17,8,10,4,11,20,21,11,3,0,7,0,0,0,13,27,23,0,25,1,4,0,0,0,6,29,7,3,0,1,16,0,0,27,0,12,28,0,25,0,19,10,0,3,3,0,0,0,0,5,0,0,0,10,0,0,14,29,0,0,0,0,4,0,0,0,0,0,0,0,0,0,0,0,0,0,0,0,0,0],"split_type":[0,0,0,0,0,0,0,0,0,0,0,0,0,0,0,0,0,0,0,0,0,0,0,0,0,0,0,0,0,0,0,0,0,0,0,0,0,0,0,0,0,0,0,0,0,0,0,0,0,0,0,0,0,0,0,0,0,0,0,0,0,0,0,0,0,0,0,0,0,0,0,0,0,0,0,0,0,0,0,0,0,0,0,0,0],"sum_hessian":[1.2572355E5,5.7362797E4,6.836075E4,4.3647714E2,5.6926316E4,6.183078E4,6.5299697E3,5.641154E4,5.147782E2,3.5197998E2,6.1478805E4,3.4051716E3,3.1247983E3,5.6233652E4,1.778888E2,1.5000624E2,3.6477197E2,6.2211113E1,2.897689E2,1.6999382E3,5.9778863E4,3.2375264E3,1.676452E2,2.2019744E3,9.228239E2,5.6149453E4,8.4197365E1,1.4500937E2,4.9968762E0,6.14017E2,1.0859211E3,5.9428234E4,3.5063083E2,8.319799E1,3.1543284E3,1.6149905E2,2.0404755E3,2.9756415E2,6.2525977E2,3.547782E1,5.6113977E4,5.8903265E2,2.4984383E1,1.7149281E2,9.144284E2,5.9013145E4,4.1509055E2,1.9837599E2,1.5225484E2,3.0923672E3,6.196127E1,1.4475952E2,1.6739536E1,3.622781E1,5.890319E2,5.609424E4,1.9737661E1,5.9965615E0,5.8303613E2,1.4475952E2,2.673329E1,4.5944547E2,5.85537E4,2.6708304E2,1.4800749E2,1.4450967E2,7.7451587E0,3.0394001E3,5.296689E1,6.2460957E0,5.827858E2,5.6082746E4,1.1492816E1,5.800375E2,2.9986682E0,1.5454803E2,3.0489746E2,5.8047414E4,5.0628354E2,3.4978135E0,1.4450967E2,4.6221107E1,2.9931792E3,5.792879E2,3.4979277E0],"tree_param":{"num_deleted":"0","num_feature":"30","num_nodes":"85","size_leaf_vector":"1"}},{"base_weights":[2.3883088E-3,1E0,-1E0,-5E-2,1E0,-1E0,2.2826908E-2,1E0,-8.2752395E-1,1E0,-1E0,9.819828E-1,-1E0,1E0,-5E-2,1E0,-5E-2,-5E-2,5E-2,-2.8504246E-1,-1E0,1E0,-5E-2,-1E0,4.786275E-1,1E0,-5E-2,5E-2,-4.7949966E-2,1E0,-1E0,-1E0,-3.29996E-1,-5E-2,1E0,1E0,-5E-2,-5E-2,1E0,-5E-2,1E0,1E0,-5E-2,1E0,-5E-2,-1E0,-5.7252514E-1,-5E-2,1E0,1E0,-5E-2,5E-2,-5E-2,-5E-2,1E0,1E0,2.2728732E-1,-5E-2,1E0,5E-2,-5E-2,-6.819515E-1,-1E0,-5E-2,1E0,5E-2,-5E-2,1E0,-5E-2,-5E-2,1E0,5E-2,-5E-2,-5E-2,5E-2,5E-2,-3.605425E-2,5E-2,-5E-2,-5E-2,-3.8115356E-2,-4.1336976E-2,5E-2,-5E-2,5E-2,5E-2,-3.9388027E-2],"categories":[],"categories_nodes":[],"categories_segments":[],"categories_sizes":[],"default_left":[0,0,0,0,0,0,0,0,0,0,0,0,0,0,0,0,0,0,0,0,0,0,0,0,0,0,0,0,0,0,0,0,0,0,0,0,0,0,0,0,0,0,0,0,0,0,0,0,0,0,0,0,0,0,0,0,0,0,0,0,0,0,0,0,0,0,0,0,0,0,0,0,0,0,0,0,0,0,0,0,0,0,0,0,0,0,0],"id":2,"left_children":[1,3,5,-1,7,9,11,13,15,17,19,21,23,25,-1,27,-1,-1,-1,29,31,33,-1,35,37,39,-1,-1,-1,41,43,45,47,-1,49,51,-1,-1,53,-1,55,57,-1,59,-1,61,63,-1,65,67,-1,-1,-1,-1,69,71,73,-1,75,-1,-1,77,79,-1,81,-1,-1,83,-1,-1,85,-1,-1,-1,-1,-1,-1,-1,-1,-1,-1,-1,-1,-1,-1,-1,-1],"loss_changes":[2.8110138E5,3.3144375E3,6.81925E3,0E0,1.7277656E3,1.7135938E3,6.542886E3,1.3478594E3,1.036353E3,4.684204E2,8.648906E2,1.2688508E3,2.0197744E3,6.353281E2,0E0,3.3336853E1,0E0,0E0,0E0,3.2455225E3,1.5434375E2,6.2772754E2,0E0,9.6470264E2,2.0062864E3,2.648125E2,0E0,0E0,0E0,1.8500818E2,8.885995E2,7.1640625E1,8.7575574E2,0E0,4.7670703E2,1.2230557E2,0E0,0E0,2.7070813E2,0E0,1.468125E2,4.12594E1,0E0,1.9830887E2,0E0,4.1921875E1,9.892744E2,0E0,5.3902588E1,3.995913E2,0E0,0E0,0E0,0E0,4.2502075E1,7.859375E1,6.767839E2,0E0,1.8683472E1,0E0,0E0,1.01662305E3,2.3859375E1,0E0,2.3364166E1,0E0,0E0,3.5221582E2,0E0,0E0,2.2144653E1,0E0,0E0,0E0,0E0,0E0,0E0,0E0,0E0,0E0,0E0,0E0,0E0,0E0,0E0,0E0,0E0],"parents":[2147483647,0,0,1,1,2,2,4,4,5,5,6,6,7,7,8,8,9,9,10,10,11,11,12,12,13,13,15,15,19,19,20,20,21,21,23,23,24,24,25,25,29,29,30,30,31,31,32,32,34,34,35,35,38,38,40,40,41,41,43,43,45,45,46,46,48,48,49,49,54,54,55,55,56,56,58,58,61,61,62,62,64,64,67,67,70,70],"right_children":[2,4,6,-1,8,10,12,14,16,18,20,22,24,26,-1,28,-1,-1,-1,30,32,34,-1,36,38,40,-1,-1,-1,42,44,46,48,-1,50,52,-1,-1,54,-1,56,58,-1,60,-1,62,64,-1,66,68,-1,-1,-1,-1,70,72,74,-1,76,-1,-1,78,80,-1,82,-1,-1,84,-1,-1,86,-1,-1,-1,-1,-1,-1,-1,-1,-1,-1,-1,-1,-1,-1,-1,-1],"split_conditions":[-1.8675427E0,-5.373378E-1,1.7297868E0,-5E-2,9.80064E-1,-1.9094715E0,-9.076433E-2,1.0119544E0,-5.296081E-1,1.8951354E0,-1.2853122E0,7.604793E-1,7.504741E-1,5.06653E-1,-5E-2,-3.63565E-1,-5E-2,-5E-2,5E-2,-1.5701054E0,2.6151826E0,-5.9542465E-1,-5E-2,-3.5532658E0,5.489235E-1,-4.065672E-1,-5E-2,5E-2,-4.7949966E-2,-3.6232728E-1,-3.5177857E-1,2.4441254E0,4.0001482E-1,-5E-2,1.3066773E0,-7.677297E-1,-5E-2,-5E-2,1.6292486E-2,-5E-2,5.07115E-1,-3.1991887E-1,-5E-2,-3.5532658E0,-5E-2,-2.6584058E0,1.2027749E0,-5E-2,4.085011E-1,1.6449934E0,-5E-2,5E-2,-5E-2,-5E-2,-7.01798E-3,1.587343E0,1.3605126E0,-5E-2,2.1050191E-1,5E-2,-5E-2,-1.2051466E0,3.4930341E0,-5E-2,8.2220525E-1,5E-2,-5E-2,1.7969394E0,-5E-2,-5E-2,1.1381637E-2,5E-2,-5E-2,-5E-2,5E-2,5E-2,-3.605425E-2,5E-2,-5E-2,-5E-2,-3.8115356E-2,-4.1336976E-2,5E-2,-5E-2,5E-2,5E-2,-3.9388027E-2],"split_indices":[14,4,4,0,1,17,8,10,4,2,20,21,11,3,0,13,0,0,0,13,27,23,0,25,1,4,0,0,0,6,29,7,3,0,0,16,0,0,27,0,12,28,0,25,0,19,10,0,3,14,0,0,0,0,5,0,13,0,10,0,0,14,29,0,0,0,0,4,0,0,0,0,0,0,0,0,0,0,0,0,0,0,0,0,0,0,0],"split_type":[0,0,0,0,0,0,0,0,0,0,0,0,0,0,0,0,0,0,0,0,0,0,0,0,0,0,0,0,0,0,0,0,0,0,0,0,0,0,0,0,0,0,0,0,0,0,0,0,0,0,0,0,0,0,0,0,0,0,0,0,0,0,0,0,0,0,0,0,0,0,0,0,0,0,0,0,0,0,0,0,0,0,0,0,0,0,0],"sum_hessian":[1.2548916E5,5.7255395E4,6.8233766E4,4.3565997E2,5.681974E4,6.171572E4,6.5180444E3,5.6305918E4,5.1381714E2,3.513247E2,6.1364395E4,3.3990886E3,3.118956E3,5.6128363E4,1.7755576E2,1.4972809E2,3.6408905E2,6.209651E1,2.892282E2,1.696765E3,5.966763E4,3.2317573E3,1.6733133E2,2.1978535E3,9.2110236E2,5.6044324E4,8.4039734E1,1.447385E2,4.9895997E0,6.1287695E2,1.0838881E3,5.9317656E4,3.4997437E2,8.304223E1,3.148715E3,1.611973E2,2.0366562E3,2.9700723E2,6.2409515E2,3.54114E1,5.6008914E4,5.879394E2,2.4937607E1,1.7117172E2,9.127164E2,5.8903332E4,4.1432205E2,1.980046E2,1.5196976E2,3.0875168E3,6.119821E1,1.444891E2,1.6708197E1,3.616121E1,5.8793396E2,5.5759688E4,2.4922643E2,5.98944E0,5.8194995E2,1.4448848E2,2.6683239E1,4.5902103E2,5.8444312E4,2.66583E2,1.4773906E2,1.442391E2,7.7306576E0,3.0383804E3,4.913644E1,6.2344017E0,5.816995E2,5.5748715E4,1.0972547E1,1.00747925E2,1.484785E2,5.789545E2,2.995373E0,1.5459314E2,3.044279E2,5.793874E4,5.055745E2,3.499947E0,1.442391E2,4.6882698E1,2.9914978E3,5.782064E2,3.4931264E0],"tree_param":{"num_deleted":"0","num_feature":"30","num_nodes":"87","size_leaf_vector":"1"}},{"base_weights":[3.5702595E-3,1E0,-1E0,-5E-2,1E0,-1E0,1.5900813E-2,1E0,-8.0844253E-1,1E0,-1E0,9.468346E-1,-9.9874425E-1,1E0,-5E-2,1E0,-5E-2,-5E-2,5E-2,-2.7859956E-1,-1E0,1E0,-5E-2,-1E0,4.6734607E-1,1E0,-5E-2,5E-2,-4.693107E-2,1E0,-1E0,-1E0,-3.223368E-1,-5E-2,1E0,1E0,-5E-2,-5E-2,1E0,-5E-2,1E0,1E0,-5E-2,1E0,-5E-2,-1E0,-5.593219E-1,-5E-2,1E0,1E0,-5E-2,5E-2,-5E-2,-5E-2,1E0,1E0,2.1825974E-1,-5E-2,1E0,5E-2,-5E-2,-6.672744E-1,-1E0,-5E-2,1E0,5E-2,-5E-2,1E0,-5E-2,-5E-2,1E0,5E-2,-5E-2,-5E-2,5E-2,5E-2,-3.3431772E-2,5E-2,-5E-2,-5E-2,-3.6304682E-2,-4.0490415E-2,5E-2,5E-2,-5E-2,5E-2,-3.86126E-2],"categories":[],"categories_nodes":[],"categories_segments":[],"categories_sizes":[],"default_left":[0,0,0,0,0,0,0,0,0,0,0,0,0,0,0,0,0,0,0,0,0,0,0,0,0,0,0,0,0,0,0,0,0,0,0,0,0,0,0,0,0,0,0,0,0,0,0,0,0,0,0,0,0,0,0,0,0,0,0,0,0,0,0,0,0,0,0,0,0,0,0,0,0,0,0,0,0,0,0,0,0,0,0,0,0,0,0],"id":3,"left_children":[1,3,5,-1,7,9,11,13,15,17,19,21,23,25,-1,27,-1,-1,-1,29,31,33,-1,35,37,39,-1,-1,-1,41,43,45,47,-1,49,51,-1,-1,53,-1,55,57,-1,59,-1,61,63,-1,65,67,-1,-1,-1,-1,69,71,73,-1,75,-1,-1,77,79,-1,81,-1,-1,83,-1,-1,85,-1,-1,-1,-1,-1,-1,-1,-1,-1,-1,-1,-1,-1,-1,-1,-1],"loss_changes":[2.7024578E5,3.2274531E3,6.7069062E3,0E0,1.6865625E3,1.6682344E3,6.147673E3,1.3123906E3,1.00485815E3,4.5631903E2,8.778906E2,1.2269443E3,1.9828274E3,6.185469E2,0E0,3.249951E1,0E0,0E0,0E0,3.1235054E3,1.5751562E2,6.111433E2,0E0,9.391836E2,1.9367714E3,2.5773438E2,0E0,0E0,0E0,1.8002808E2,8.6507263E2,7.6171875E1,8.453305E2,0E0,4.7152148E2,1.1896878E2,0E0,0E0,2.634862E2,0E0,1.5014062E2,4.054065E1,0E0,1.9298007E2,0E0,4.628125E1,9.564897E2,0E0,5.2358704E1,4.1801416E2,0E0,0E0,0E0,0E0,4.125708E1,7.6421875E1,6.5327325E2,0E0,1.6551514E1,0E0,0E0,9.813943E2,3.3203125E1,0E0,2.2837738E1,0E0,0E0,3.557998E2,0E0,0E0,2.1652466E1,0E0,0E0,0E0,0E0,0E0,0E0,0E0,0E0,0E0,0E0,0E0,0E0,0E0,0E0,0E0,0E0],"parents":[2147483647,0,0,1,1,2,2,4,4,5,5,6,6,7,7,8,8,9,9,10,10,11,11,12,12,13,13,15,15,19,19,20,20,21,21,23,23,24,24,25,25,29,29,30,30,31,31,32,32,34,34,35,35,38,38,40,40,41,41,43,43,45,45,46,46,48,48,49,49,54,54,55,55,56,56,58,58,61,61,62,62,64,64,67,67,70,70],"right_children":[2,4,6,-1,8,10,12,14,16,18,20,22,24,26,-1,28,-1,-1,-1,30,32,34,-1,36,38,40,-1,-1,-1,42,44,46,48,-1,50,52,-1,-1,54,-1,56,58,-1,60,-1,62,64,-1,66,68,-1,-1,-1,-1,70,72,74,-1,76,-1,-1,78,80,-1,82,-1,-1,84,-1,-1,86,-1,-1,-1,-1,-1,-1,-1,-1,-1,-1,-1,-1,-1,-1,-1,-1],"split_conditions":[-1.8675427E0,-5.373378E-1,1.7297868E0,-5E-2,9.80064E-1,-1.9094715E0,-9.076433E-2,1.0119544E0,-5.296081E-1,1.8022078E0,-1.2853122E0,7.604793E-1,7.504741E-1,5.06653E-1,-5E-2,4.9477298E-2,-5E-2,-5E-2,5E-2,-1.5701054E0,2.6151826E0,-5.9542465E-1,-5E-2,-3.5532658E0,5.489235E-1,-4.065672E-1,-5E-2,5E-2,-4.693107E-2,-3.6232728E-1,-3.5177857E-1,2.4441254E0,4.0001482E-1,-5E-2,9.894215E-1,-7.677297E-1,-5E-2,-5E-2,1.6292486E-2,-5E-2,5.07115E-1,-1.7348891E-1,-5E-2,-3.5532658E0,-5E-2,-2.6584058E0,1.2027749E0,-5E-2,4.085011E-1,1.3283789E0,-5E-2,5E-2,-5E-2,-5E-2,-7.01798E-3,1.587343E0,1.3605126E0,-5E-2,2.1050191E-1,5E-2,-5E-2,-1.2051466E0,3.4930341E0,-5E-2,8.2220525E-1,5E-2,-5E-2,8.699383E-1,-5E-2,-5E-2,1.1381637E-2,5E-2,-5E-2,-5E-2,5E-2,5E-2,-3.3431772E-2,5E-2,-5E-2,-5E-2,-3.6304682E-2,-4.0490415E-2,5E-2,5E-2,-5E-2,5E-2,-3.86126E-2],"split_indices":[14,4,4,0,1,17,8,10,4,11,20,21,11,3,0,27,0,0,0,13,27,23,0,25,1,4,0,0,0,6,29,7,3,0,1,16,0,0,27,0,12,4,0,25,0,19,10,0,3,3,0,0,0,0,5,0,13,0,10,0,0,14,29,0,0,0,0,27,0,0,0,0,0,0,0,0,0,0,0,0,0,0,0,0,0,0,0],"split_type":[0,0,0,0,0,0,0,0,0,0,0,0,0,0,0,0,0,0,0,0,0,0,0,0,0,0,0,0,0,0,0,0,0,0,0,0,0,0,0,0,0,0,0,0,0,0,0,0,0,0,0,0,0,0,0,0,0,0,0,0,0,0,0,0,0,0,0,0,0,0,0,0,0,0,0,0,0,0,0,0,0,0,0,0,0,0,0],"sum_hessian":[1.25100266E5,5.7077418E4,6.802284E4,4.3430243E2,5.6643117E4,6.1524395E4,6.4984473E3,5.6130895E4,5.122206E2,3.5023376E2,6.1174164E4,3.3892002E3,3.109247E3,5.5953895E4,1.7700249E2,1.4926608E2,3.6295453E2,6.1904884E1,2.883289E2,1.6914894E3,5.948267E4,3.2223904E3,1.6680992E2,2.1910068E3,9.1824023E2,5.5870117E4,8.377786E1,1.4428818E2,4.977909E0,6.1097864E2,1.0805106E3,5.913379E4,3.4888385E2,8.278346E1,3.139607E3,1.6069565E2,2.0303112E3,2.960819E2,6.221583E2,3.5301056E1,5.5834816E4,5.861188E2,2.48599E1,1.7063837E2,9.098723E2,5.8720746E4,4.1304102E2,1.973876E2,1.5149625E2,3.0777341E3,6.1872887E1,1.4403952E2,1.6656132E1,3.6049747E1,5.861086E2,5.5585945E4,2.4886935E2,5.974906E0,5.8014386E2,1.4403827E2,2.6600092E1,4.5802515E2,5.8262723E4,2.6575232E2,1.4728868E2,1.4378967E2,7.7065687E0,3.024833E3,5.2900913E1,6.214975E0,5.798936E2,5.5575008E4,1.0938355E1,1.0084479E2,1.4802457E2,5.7740356E2,2.740307E0,1.5444513E2,3.0358002E2,5.77582E4,5.0452548E2,3.499015E0,1.4378967E2,2.9803684E3,4.446473E1,5.764079E2,3.4857008E0],"tree_param":{"num_deleted":"0","num_feature":"30","num_nodes":"87","size_leaf_vector":"1"}},{"base_weights":[4.755392E-3,1E0,-1E0,-5E-2,1E0,-1E0,9.002462E-3,1E0,-7.902946E-1,1E0,-1E0,9.12703E-1,-9.7626704E-1,1E0,-5E-2,1E0,-5E-2,-5E-2,5E-2,-2.7249408E-1,-1E0,1E0,-5E-2,-1E0,4.5659813E-1,1E0,-5E-2,-4.6082594E-2,5E-2,1E0,-1E0,-1E0,-5.4107314E-1,-5E-2,1E0,1E0,-5E-2,-5E-2,1E0,-5E-2,1E0,1E0,-5E-2,1E0,-5E-2,-1E0,-2.226116E-2,-5E-2,1E0,1E0,-5E-2,5E-2,-5E-2,-5E-2,1E0,1E0,2.0957491E-1,-5E-2,1E0,5E-2,-5E-2,-6.288869E-1,-1E0,-5E-2,1E0,-5E-2,1E0,1E0,-5E-2,-5E-2,1E0,5E-2,-5E-2,-5E-2,5E-2,5E-2,-3.4684468E-2,5E-2,-5E-2,-5E-2,-3.327455E-2,-3.9675098E-2,5E-2,5E-2,-5E-2,-5E-2,5E-2,5E-2,-3.7864674E-2],"categories":[],"categories_nodes":[],"categories_segments":[],"categories_sizes":[],"default_left":[0,0,0,0,0,0,0,0,0,0,0,0,0,0,0,0,0,0,0,0,0,0,0,0,0,0,0,0,0,0,0,0,0,0,0,0,0,0,0,0,0,0,0,0,0,0,0,0,0,0,0,0,0,0,0,0,0,0,0,0,0,0,0,0,0,0,0,0,0,0,0,0,0,0,0,0,0,0,0,0,0,0,0,0,0,0,0,0,0],"id":4,"left_children":[1,3,5,-1,7,9,11,13,15,17,19,21,23,25,-1,27,-1,-1,-1,29,31,33,-1,35,37,39,-1,-1,-1,41,43,45,47,-1,49,51,-1,-1,53,-1,55,57,-1,59,-1,61,63,-1,65,67,-1,-1,-1,-1,69,71,73,-1,75,-1,-1,77,79,-1,81,-1,83,85,-1,-1,87,-1,-1,-1,-1,-1,-1,-1,-1,-1,-1,-1,-1,-1,-1,-1,-1,-1,-1],"loss_changes":[2.5958625E5,3.1407656E3,6.5884062E3,0E0,1.6456406E3,1.6230469E3,5.770849E3,1.2770781E3,9.7332446E2,4.4396338E2,8.89E2,1.1774832E3,1.9436099E3,6.018125E2,0E0,3.1780823E1,0E0,0E0,0E0,3.0036643E3,1.775625E2,5.946211E2,0E0,9.1375977E2,1.8681779E3,2.5070312E2,0E0,0E0,0E0,1.750664E2,8.4163367E2,2.7673438E2,1.6775132E3,0E0,4.670559E2,1.1564447E2,0E0,0E0,2.5629126E2,0E0,1.531875E2,3.9535034E1,0E0,1.8767105E2,0E0,5.7265625E1,7.277926E2,0E0,3.192163E2,3.9520898E2,0E0,0E0,0E0,0E0,4.00166E1,7.421875E1,6.3005383E2,0E0,1.789685E1,0E0,0E0,9.3953815E2,5.0609375E1,0E0,2.2326141E1,0E0,9.408502E1,3.5032617E2,0E0,0E0,2.1174072E1,0E0,0E0,0E0,0E0,0E0,0E0,0E0,0E0,0E0,0E0,0E0,0E0,0E0,0E0,0E0,0E0,0E0,0E0],"parents":[2147483647,0,0,1,1,2,2,4,4,5,5,6,6,7,7,8,8,9,9,10,10,11,11,12,12,13,13,15,15,19,19,20,20,21,21,23,23,24,24,25,25,29,29,30,30,31,31,32,32,34,34,35,35,38,38,40,40,41,41,43,43,45,45,46,46,48,48,49,49,54,54,55,55,56,56,58,58,61,61,62,62,64,64,66,66,67,67,70,70],"right_children":[2,4,6,-1,8,10,12,14,16,18,20,22,24,26,-1,28,-1,-1,-1,30,32,34,-1,36,38,40,-1,-1,-1,42,44,46,48,-1,50,52,-1,-1,54,-1,56,58,-1,60,-1,62,64,-1,66,68,-1,-1,-1,-1,70,72,74,-1,76,-1,-1,78,80,-1,82,-1,84,86,-1,-1,88,-1,-1,-1,-1,-1,-1,-1,-1,-1,-1,-1,-1,-1,-1,-1,-1,-1,-1],"split_conditions":[-1.8675427E0,-5.373378E-1,1.7297868E0,-5E-2,9.80064E-1,-1.9094715E0,-9.076433E-2,1.0119544E0,-5.296081E-1,1.8951354E0,-1.2853122E0,7.604793E-1,7.504741E-1,5.06653E-1,-5E-2,1.4686525E0,-5E-2,-5E-2,5E-2,-1.5701054E0,1.8164634E0,-5.9542465E-1,-5E-2,-3.5532658E0,5.489235E-1,-4.065672E-1,-5E-2,-4.6082594E-2,5E-2,-3.6232728E-1,-3.5177857E-1,2.4441254E0,1.2384809E0,-5E-2,1.3066773E0,-7.677297E-1,-5E-2,-5E-2,1.6292486E-2,-5E-2,5.07115E-1,-3.1991887E-1,-5E-2,-3.5532658E0,-5E-2,-2.6584058E0,1.2027749E0,-5E-2,3.8728097E-1,1.6449934E0,-5E-2,5E-2,-5E-2,-5E-2,-7.01798E-3,1.587343E0,1.3605126E0,-5E-2,2.1050191E-1,5E-2,-5E-2,-1.2051466E0,3.4930341E0,-5E-2,8.2220525E-1,-5E-2,-1.3846701E-1,1.7969394E0,-5E-2,-5E-2,1.1381637E-2,5E-2,-5E-2,-5E-2,5E-2,5E-2,-3.4684468E-2,5E-2,-5E-2,-5E-2,-3.327455E-2,-3.9675098E-2,5E-2,5E-2,-5E-2,-5E-2,5E-2,5E-2,-3.7864674E-2],"split_indices":[14,4,4,0,1,17,8,10,4,2,20,21,11,3,0,0,0,0,0,13,23,23,0,25,1,4,0,0,0,6,29,7,15,0,0,16,0,0,27,0,12,28,0,25,0,19,10,0,26,14,0,0,0,0,5,0,13,0,10,0,0,14,29,0,0,0,17,4,0,0,0,0,0,0,0,0,0,0,0,0,0,0,0,0,0,0,0,0,0],"split_type":[0,0,0,0,0,0,0,0,0,0,0,0,0,0,0,0,0,0,0,0,0,0,0,0,0,0,0,0,0,0,0,0,0,0,0,0,0,0,0,0,0,0,0,0,0,0,0,0,0,0,0,0,0,0,0,0,0,0,0,0,0,0,0,0,0,0,0,0,0,0,0,0,0,0,0,0,0,0,0,0,0,0,0,0,0,0,0,0,0],"sum_hessian":[1.2455844E5,5.682932E4,6.772912E4,4.3241147E2,5.639691E4,6.1257848E4,6.471266E3,5.5886914E4,5.09997E2,3.4871625E2,6.0909133E4,3.3755454E3,3.0957207E3,5.571068E4,1.7623181E2,1.4862279E2,3.613742E2,6.163908E1,2.8707718E2,1.6841448E3,5.922499E4,3.209462E3,1.6608363E2,2.1814688E3,9.1425195E2,5.5627266E4,8.341309E1,4.9602914E0,1.4366249E2,6.083387E2,1.075806E3,5.836311E4,8.6187744E2,8.242303E1,3.1270388E3,1.5999658E2,2.0214722E3,2.9479294E2,6.19459E2,3.5147354E1,5.559212E4,5.83587E2,2.475166E1,1.6989539E2,9.059107E2,5.8073387E4,2.897234E2,5.139153E2,3.479622E2,3.0660024E3,6.1036377E1,1.4341296E2,1.658361E1,3.5894E1,5.83565E2,5.5343914E4,2.4820499E2,5.9581327E0,5.7762885E2,1.434111E2,2.6484274E1,4.470439E2,5.7626344E4,1.4306459E2,1.466588E2,4.455522E1,3.0340695E2,3.0169292E3,4.907316E1,6.187915E0,5.773771E2,5.5333023E4,1.089073E1,1.0081623E2,1.4738875E2,5.746469E2,2.9819622E0,1.541047E2,2.929392E2,5.713435E4,4.9199063E2,3.4952075E0,1.4316359E2,2.8979242E2,1.3614531E1,4.684737E1,2.9700818E3,5.7390125E2,3.4758294E0],"tree_param":{"num_deleted":"0","num_feature":"30","num_nodes":"89","size_leaf_vector":"1"}},{"base_weights":[5.821773E-3,1E0,-1E0,-5E-2,1E0,-1E0,2.0495276E-3,1E0,-7.7303237E-1,1E0,-1E0,8.79442E-1,-9.54888E-1,1E0,-5E-2,1E0,-5E-2,-5E-2,5E-2,-2.6668057E-1,-1E0,1E0,-5E-2,-1E0,4.4635713E-1,1E0,-5E-2,5E-2,-4.5029618E-2,1E0,-1E0,-1E0,-5.2690285E-1,-5E-2,1E0,1E0,-5E-2,-5E-2,1E0,-5E-2,1E0,1E0,-5E-2,1E0,-5E-2,-1E0,-2.1927305E-2,-5E-2,1E0,1E0,-2.529712E-1,5E-2,-5E-2,-5E-2,1E0,1E0,2.012121E-1,-5E-2,1E0,5E-2,-5E-2,-6.1641E-1,-1E0,-5E-2,1E0,-5E-2,1E0,1E0,-5E-2,1E0,-5E-2,-4.9068604E-2,1E0,5E-2,-5E-2,-5E-2,5E-2,5E-2,-3.21965E-2,5E-2,-5E-2,-5E-2,-3.2026526E-2,-3.888938E-2,5E-2,5E-2,-5E-2,5E-2,-5E-2,-2.2351734E-2,5E-2,5E-2,-3.714281E-2],"categories":[],"categories_nodes":[],"categories_segments":[],"categories_sizes":[],"default_left":[0,0,0,0,0,0,0,0,0,0,0,0,0,0,0,0,0,0,0,0,0,0,0,0,0,0,0,0,0,0,0,0,0,0,0,0,0,0,0,0,0,0,0,0,0,0,0,0,0,0,0,0,0,0,0,0,0,0,0,0,0,0,0,0,0,0,0,0,0,0,0,0,0,0,0,0,0,0,0,0,0,0,0,0,0,0,0,0,0,0,0,0,0],"id":5,"left_children":[1,3,5,-1,7,9,11,13,15,17,19,21,23,25,-1,27,-1,-1,-1,29,31,33,-1,35,37,39,-1,-1,-1,41,43,45,47,-1,49,51,-1,-1,53,-1,55,57,-1,59,-1,61,63,-1,65,67,69,-1,-1,-1,71,73,75,-1,77,-1,-1,79,81,-1,83,-1,85,87,-1,89,-1,-1,91,-1,-1,-1,-1,-1,-1,-1,-1,-1,-1,-1,-1,-1,-1,-1,-1,-1,-1,-1,-1],"loss_changes":[2.4916348E5,3.0545156E3,6.4628516E3,0E0,1.6050625E3,1.5780781E3,5.412479E3,1.2419062E3,9.4184546E2,4.3196838E2,8.9828906E2,1.1212397E3,1.901095E3,5.851875E2,0E0,3.0906616E1,0E0,0E0,0E0,2.886284E3,1.8828906E2,5.781809E2,0E0,8.884619E2,1.800612E3,2.436875E2,0E0,0E0,0E0,1.701294E2,8.183115E2,2.7540625E2,1.6204646E3,0E0,4.776919E2,1.1233667E2,0E0,0E0,2.4913159E2,0E0,1.5595312E2,3.8734375E1,0E0,1.8238841E2,0E0,6.1203125E1,7.011342E2,0E0,3.1032922E2,4.2898584E2,8.247688E2,0E0,0E0,0E0,3.8786255E1,7.2046875E1,6.071566E2,0E0,1.5875732E1,0E0,0E0,9.048153E2,6.165625E1,0E0,2.1828827E1,0E0,9.136932E1,3.927666E2,0E0,8.585144E0,0E0,0E0,2.070874E1,0E0,0E0,0E0,0E0,0E0,0E0,0E0,0E0,0E0,0E0,0E0,0E0,0E0,0E0,0E0,0E0,0E0,0E0,0E0,0E0],"parents":[2147483647,0,0,1,1,2,2,4,4,5,5,6,6,7,7,8,8,9,9,10,10,11,11,12,12,13,13,15,15,19,19,20,20,21,21,23,23,24,24,25,25,29,29,30,30,31,31,32,32,34,34,35,35,38,38,40,40,41,41,43,43,45,45,46,46,48,48,49,49,50,50,54,54,55,55,56,56,58,58,61,61,62,62,64,64,66,66,67,67,69,69,72,72],"right_children":[2,4,6,-1,8,10,12,14,16,18,20,22,24,26,-1,28,-1,-1,-1,30,32,34,-1,36,38,40,-1,-1,-1,42,44,46,48,-1,50,52,-1,-1,54,-1,56,58,-1,60,-1,62,64,-1,66,68,70,-1,-1,-1,72,74,76,-1,78,-1,-1,80,82,-1,84,-1,86,88,-1,90,-1,-1,92,-1,-1,-1,-1,-1,-1,-1,-1,-1,-1,-1,-1,-1,-1,-1,-1,-1,-1,-1,-1],"split_conditions":[-1.8675427E0,-5.373378E-1,1.7297868E0,-5E-2,9.80064E-1,-1.9094715E0,-9.076433E-2,1.0119544E0,-5.296081E-1,1.8022078E0,-1.2853122E0,7.604793E-1,7.504741E-1,5.06653E-1,-5E-2,4.9477298E-2,-5E-2,-5E-2,5E-2,-1.5701054E0,1.8164634E0,-5.9542465E-1,-5E-2,-3.5532658E0,5.489235E-1,-4.065672E-1,-5E-2,5E-2,-4.5029618E-2,-3.6232728E-1,-3.5177857E-1,2.4441254E0,1.2384809E0,-5E-2,6.1051375E-1,-7.677297E-1,-5E-2,-5E-2,1.6292486E-2,-5E-2,5.07115E-1,-1.7348891E-1,-5E-2,-3.5532658E0,-5E-2,-2.6584058E0,1.2027749E0,-5E-2,3.8728097E-1,1.3561816E0,-1.1489492E-2,5E-2,-5E-2,-5E-2,-7.01798E-3,1.587343E0,1.3605126E0,-5E-2,2.1050191E-1,5E-2,-5E-2,-1.2051466E0,2.1911042E0,-5E-2,8.2220525E-1,-5E-2,-1.3846701E-1,1.3283789E0,-5E-2,3.6822006E-1,-5E-2,-4.9068604E-2,1.1381637E-2,5E-2,-5E-2,-5E-2,5E-2,5E-2,-3.21965E-2,5E-2,-5E-2,-5E-2,-3.2026526E-2,-3.888938E-2,5E-2,5E-2,-5E-2,5E-2,-5E-2,-2.2351734E-2,5E-2,5E-2,-3.714281E-2],"split_indices":[14,4,4,0,1,17,8,10,4,11,20,21,11,3,0,27,0,0,0,13,23,23,0,25,1,4,0,0,0,6,29,7,15,0,1,16,0,0,27,0,12,4,0,25,0,19,10,0,26,14,7,0,0,0,5,0,13,0,10,0,0,14,15,0,0,0,17,3,0,2,0,0,0,0,0,0,0,0,0,0,0,0,0,0,0,0,0,0,0,0,0,0,0],"split_type":[0,0,0,0,0,0,0,0,0,0,0,0,0,0,0,0,0,0,0,0,0,0,0,0,0,0,0,0,0,0,0,0,0,0,0,0,0,0,0,0,0,0,0,0,0,0,0,0,0,0,0,0,0,0,0,0,0,0,0,0,0,0,0,0,0,0,0,0,0,0,0,0,0,0,0,0,0,0,0,0,0,0,0,0,0,0,0,0,0,0,0,0,0],"sum_hessian":[1.2386766E5,5.651233E4,6.735533E4,4.2999622E2,5.6082332E4,6.0918906E4,6.4364214E3,5.5575176E4,5.0715848E2,3.4677594E2,6.057213E4,3.3579785E3,3.0784429E3,5.539993E4,1.7524747E2,1.4780272E2,3.5935574E2,6.129851E1,2.8547745E2,1.6747601E3,5.889737E4,3.1928225E3,1.6515596E2,2.169286E3,9.091571E2,5.531698E4,8.294718E1,1.428625E2,4.940223E0,6.04963E2,1.0697971E3,5.803883E4,8.585435E2,8.196265E1,3.1108599E3,1.5910353E2,2.0101823E3,2.9314655E2,6.1601056E2,3.495104E1,5.528203E4,5.803496E2,2.4613407E1,1.6894643E2,9.008507E2,5.7750707E4,2.8811816E2,5.1106378E2,3.4747974E2,2.8084006E3,3.0245935E2,1.4261255E2,1.6490982E1,3.5694717E1,5.8031586E2,5.5034793E4,2.4723659E2,5.931741E0,5.7441785E2,1.4261009E2,2.6336346E1,4.449722E2,5.730574E4,1.4226549E2,1.4585266E2,4.4306953E1,3.031728E2,2.756421E3,5.1979763E1,1.4385188E2,1.5860747E2,6.153352E0,5.741625E2,5.5023965E4,1.0829899E1,1.00662384E2,1.465742E2,5.716933E2,2.7245736E0,1.5357361E2,2.9139856E2,5.6794895E4,5.108439E2,3.4887087E0,1.4236395E2,2.89634E2,1.3538784E1,2.7061453E3,5.0275543E1,1.4879336E0,1.4236395E2,5.706988E2,3.4636858E0],"tree_param":{"num_deleted":"0","num_feature":"30","num_nodes":"93","size_leaf_vector":"1"}},{"base_weights":[6.9791484E-3,1E0,-1E0,-5E-2,1E0,-1E0,-3.2977557E-3,1E0,-7.566176E-1,1E0,-1E0,8.4990174E-1,-9.345549E-1,1E0,-5E-2,1E0,-5E-2,-5E-2,5E-2,-2.6117438E-1,-1E0,9.835928E-1,-5E-2,-1E0,4.365914E-1,1E0,-5E-2,-4.4265963E-2,5E-2,1E0,-1E0,-1E0,-5.1342154E-1,1E0,-5E-2,1E0,-5E-2,-5E-2,1E0,-5E-2,1E0,1E0,-5E-2,1E0,-5E-2,-1E0,-2.1625293E-2,-5E-2,1E0,1E0,-2.5202978E-1,5E-2,-5E-2,-5E-2,1E0,1E0,1.931517E-1,-4.908859E-2,1E0,5E-2,-5E-2,-1E0,-5.981878E-1,-5E-2,1E0,-5E-2,1E0,1E0,-5E-2,1E0,-5E-2,-4.7895692E-2,1E0,5E-2,-5E-2,-5E-2,5E-2,5E-2,-3.339088E-2,-2.9695177E-2,-5E-2,5E-2,-5E-2,-3.813168E-2,5E-2,5E-2,-5E-2,5E-2,-5E-2,-2.2099908E-2,5E-2,5E-2,-3.6445674E-2],"categories":[],"categories_nodes":[],"categories_segments":[],"categories_sizes":[],"default_left":[0,0,0,0,0,0,0,0,0,0,0,0,0,0,0,0,0,0,0,0,0,0,0,0,0,0,0,0,0,0,0,0,0,0,0,0,0,0,0,0,0,0,0,0,0,0,0,0,0,0,0,0,0,0,0,0,0,0,0,0,0,0,0,0,0,0,0,0,0,0,0,0,0,0,0,0,0,0,0,0,0,0,0,0,0,0,0,0,0,0,0,0,0],"id":6,"left_children":[1,3,5,-1,7,9,11,13,15,17,19,21,23,25,-1,27,-1,-1,-1,29,31,33,-1,35,37,39,-1,-1,-1,41,43,45,47,49,-1,51,-1,-1,53,-1,55,57,-1,59,-1,61,63,-1,65,67,69,-1,-1,-1,71,73,75,-1,77,-1,-1,79,81,-1,83,-1,85,87,-1,89,-1,-1,91,-1,-1,-1,-1,-1,-1,-1,-1,-1,-1,-1,-1,-1,-1,-1,-1,-1,-1,-1,-1],"loss_changes":[2.389359E5,2.9687969E3,6.3530547E3,0E0,1.5647422E3,1.5333906E3,5.0892397E3,1.2069922E3,9.105044E2,4.197486E2,9.0571094E2,1.0627424E3,1.8557715E3,5.6865625E2,0E0,3.0239746E1,0E0,0E0,0E0,2.771354E3,1.9842969E2,5.6419727E2,0E0,8.633208E2,1.7341643E3,2.3671875E2,0E0,0E0,0E0,1.6522302E2,7.951333E2,2.7371094E2,1.5639745E3,4.759878E2,0E0,1.0904941E2,0E0,0E0,2.4201611E2,0E0,1.58375E2,3.783557E1,0E0,1.7713861E2,0E0,7.522656E1,6.749881E2,0E0,3.0149707E2,4.309795E2,7.9643976E2,0E0,0E0,0E0,3.7598267E1,6.990625E1,5.8461066E2,0E0,1.714331E1,0E0,0E0,6.809375E1,1.1756234E3,0E0,2.1345398E1,0E0,8.867059E1,4.0593018E2,0E0,8.488068E0,0E0,0E0,2.025647E1,0E0,0E0,0E0,0E0,0E0,0E0,0E0,0E0,0E0,0E0,0E0,0E0,0E0,0E0,0E0,0E0,0E0,0E0,0E0,0E0],"parents":[2147483647,0,0,1,1,2,2,4,4,5,5,6,6,7,7,8,8,9,9,10,10,11,11,12,12,13,13,15,15,19,19,20,20,21,21,23,23,24,24,25,25,29,29,30,30,31,31,32,32,33,33,35,35,38,38,40,40,41,41,43,43,45,45,46,46,48,48,49,49,50,50,54,54,55,55,56,56,58,58,61,61,62,62,64,64,66,66,67,67,69,69,72,72],"right_children":[2,4,6,-1,8,10,12,14,16,18,20,22,24,26,-1,28,-1,-1,-1,30,32,34,-1,36,38,40,-1,-1,-1,42,44,46,48,50,-1,52,-1,-1,54,-1,56,58,-1,60,-1,62,64,-1,66,68,70,-1,-1,-1,72,74,76,-1,78,-1,-1,80,82,-1,84,-1,86,88,-1,90,-1,-1,92,-1,-1,-1,-1,-1,-1,-1,-1,-1,-1,-1,-1,-1,-1,-1,-1,-1,-1,-1,-1],"split_conditions":[-1.8675427E0,-5.373378E-1,1.7297868E0,-5E-2,9.80064E-1,-1.9094715E0,-9.076433E-2,1.0119544E0,-5.296081E-1,1.8951354E0,-1.2853122E0,7.604793E-1,7.504741E-1,5.06653E-1,-5E-2,1.4686525E0,-5E-2,-5E-2,5E-2,-1.5701054E0,1.8164634E0,8.699383E-1,-5E-2,-3.5532658E0,5.489235E-1,-4.065672E-1,-5E-2,-4.4265963E-2,5E-2,-3.6232728E-1,-3.5177857E-1,2.4441254E0,1.2384809E0,6.1051375E-1,-5E-2,-7.677297E-1,-5E-2,-5E-2,1.6292486E-2,-5E-2,5.07115E-1,-3.1991887E-1,-5E-2,-3.5532658E0,-5E-2,3.4930341E0,1.2027749E0,-5E-2,3.8728097E-1,1.3283789E0,-1.1489492E-2,5E-2,-5E-2,-5E-2,-7.01798E-3,1.587343E0,1.3605126E0,-4.908859E-2,2.1050191E-1,5E-2,-5E-2,-2.6584058E0,-2.185054E0,-5E-2,8.2220525E-1,-5E-2,-1.3846701E-1,1.3561816E0,-5E-2,3.6822006E-1,-5E-2,-4.7895692E-2,1.1381637E-2,5E-2,-5E-2,-5E-2,5E-2,5E-2,-3.339088E-2,-2.9695177E-2,-5E-2,5E-2,-5E-2,-3.813168E-2,5E-2,5E-2,-5E-2,5E-2,-5E-2,-2.2099908E-2,5E-2,5E-2,-3.6445674E-2],"split_indices":[14,4,4,0,1,17,8,10,4,2,20,21,11,3,0,0,0,0,0,13,23,27,0,25,1,4,0,0,0,6,29,7,15,1,0,16,0,0,27,0,12,28,0,25,0,29,10,0,26,3,7,0,0,0,5,0,13,0,10,0,0,19,26,0,0,0,17,14,0,2,0,0,0,0,0,0,0,0,0,0,0,0,0,0,0,0,0,0,0,0,0,0,0],"split_type":[0,0,0,0,0,0,0,0,0,0,0,0,0,0,0,0,0,0,0,0,0,0,0,0,0,0,0,0,0,0,0,0,0,0,0,0,0,0,0,0,0,0,0,0,0,0,0,0,0,0,0,0,0,0,0,0,0,0,0,0,0,0,0,0,0,0,0,0,0,0,0,0,0,0,0,0,0,0,0,0,0,0,0,0,0,0,0,0,0,0,0,0,0],"sum_hessian":[1.2303126E5,5.6128004E4,6.690325E4,4.270687E2,5.5700938E4,6.050805E4,6.395202E3,5.519722E4,5.0371716E2,3.4442615E2,6.0163625E4,3.337702E3,3.0575002E3,5.5023164E4,1.7405432E2,1.4680803E2,3.5690915E2,6.0886745E1,2.835394E2,1.663389E3,5.8500234E4,3.1736704E3,1.6403152E2,2.1545183E3,9.029819E2,5.494078E4,8.2382454E1,4.914319E0,1.418937E2,6.008754E2,1.0625137E3,5.7646055E4,8.5418097E2,3.099938E3,7.3732315E1,1.5802092E2,1.9964974E3,2.9115088E2,6.11831E2,3.471308E1,5.490607E4,5.764296E2,2.4445831E1,1.677962E2,8.9471747E2,5.7359883E4,2.861713E2,5.076031E2,3.4657788E2,2.798103E3,3.0183502E2,1.4164221E2,1.6378708E1,3.5452885E1,5.763781E2,5.46601E4,2.4596893E2,5.9068165E0,5.7052277E2,1.4163916E2,2.615704E1,5.686792E4,4.919606E2,1.412969E2,1.448744E2,4.400589E1,3.02572E2,2.7410488E3,5.705418E1,1.4288135E2,1.5895367E2,6.1123037E0,5.702658E2,5.4649344E4,1.0756166E1,1.0038402E2,1.4558492E2,5.675622E2,2.9606152E0,4.3820004E2,5.6429723E4,1.4781786E2,3.4414273E2,3.4797006E0,1.413947E2,2.891251E2,1.3446903E1,2.6901086E3,5.0940224E1,1.4866496E0,1.413947E2,5.668164E2,3.4494362E0],"tree_param":{"num_deleted":"0","num_feature":"30","num_nodes":"93","size_leaf_vector":"1"}},{"base_weights":[8.158379E-3,1E0,-1E0,-5E-2,1E0,-1E0,-8.702441E-3,1E0,-7.410041E-1,1E0,-1E0,8.2101166E-1,-9.1521746E-1,1E0,-5E-2,1E0,-5E-2,-5E-2,5E-2,-2.5593513E-1,-1E0,9.512085E-1,-5E-2,-1E0,4.2727458E-1,1E0,-5E-2,5E-2,-4.340049E-2,1E0,-1E0,-1E0,-5.0059766E-1,-5E-2,1E0,1E0,-5E-2,-5E-2,1E0,-5E-2,1E0,1E0,-5E-2,1E0,-5E-2,-1E0,-2.135417E-2,-5E-2,1E0,1E0,-2.4882281E-1,5E-2,-5E-2,-5E-2,1E0,1E0,1.8537393E-1,-4.8266836E-2,1E0,5E-2,-5E-2,-1E0,-8.2337874E-1,-5E-2,1E0,-5E-2,1E0,1E0,-5E-2,1E0,-5E-2,-4.6779927E-2,1E0,5E-2,-5E-2,-5E-2,5E-2,5E-2,-3.259967E-2,-5E-2,-1.6630365E-2,1.0202651E-2,-5E-2,-3.7400555E-2,5E-2,5E-2,-5E-2,5E-2,-5E-2,-2.1852266E-2,5E-2,5E-2,-3.5772007E-2],"categories":[],"categories_nodes":[],"categories_segments":[],"categories_sizes":[],"default_left":[0,0,0,0,0,0,0,0,0,0,0,0,0,0,0,0,0,0,0,0,0,0,0,0,0,0,0,0,0,0,0,0,0,0,0,0,0,0,0,0,0,0,0,0,0,0,0,0,0,0,0,0,0,0,0,0,0,0,0,0,0,0,0,0,0,0,0,0,0,0,0,0,0,0,0,0,0,0,0,0,0,0,0,0,0,0,0,0,0,0,0,0,0],"id":7,"left_children":[1,3,5,-1,7,9,11,13,15,17,19,21,23,25,-1,27,-1,-1,-1,29,31,33,-1,35,37,39,-1,-1,-1,41,43,45,47,-1,49,51,-1,-1,53,-1,55,57,-1,59,-1,61,63,-1,65,67,69,-1,-1,-1,71,73,75,-1,77,-1,-1,79,81,-1,83,-1,85,87,-1,89,-1,-1,91,-1,-1,-1,-1,-1,-1,-1,-1,-1,-1,-1,-1,-1,-1,-1,-1,-1,-1,-1,-1],"loss_changes":[2.2892862E5,2.8837188E3,6.237172E3,0E0,1.5247656E3,1.4890391E3,4.7815894E3,1.1723203E3,8.7938367E2,4.0791824E2,9.113047E2,1.00569434E3,1.8081057E3,5.522422E2,0E0,2.9506775E1,0E0,0E0,0E0,2.6591123E3,2.0794531E2,5.5433984E2,0E0,8.383657E2,1.6689209E3,2.2979688E2,0E0,0E0,0E0,1.6035278E2,7.7212744E2,2.716797E2,1.5081508E3,0E0,4.712312E2,1.0578647E2,0E0,0E0,2.3495312E2,0E0,1.6050781E2,3.6980713E1,0E0,1.7192769E2,0E0,9.749219E1,6.493779E2,0E0,2.927304E2,4.0817188E2,7.677583E2,0E0,0E0,0E0,3.6457764E1,6.777344E1,5.624426E2,0E0,1.5380737E1,0E0,0E0,1.8374219E2,1.6544365E3,0E0,2.0875427E1,0E0,8.599164E1,3.726875E2,0E0,8.392212E0,0E0,0E0,1.9816772E1,0E0,0E0,0E0,0E0,0E0,0E0,0E0,0E0,0E0,0E0,0E0,0E0,0E0,0E0,0E0,0E0,0E0,0E0,0E0,0E0],"parents":[2147483647,0,0,1,1,2,2,4,4,5,5,6,6,7,7,8,8,9,9,10,10,11,11,12,12,13,13,15,15,19,19,20,20,21,21,23,23,24,24,25,25,29,29,30,30,31,31,32,32,34,34,35,35,38,38,40,40,41,41,43,43,45,45,46,46,48,48,49,49,50,50,54,54,55,55,56,56,58,58,61,61,62,62,64,64,66,66,67,67,69,69,72,72],"right_children":[2,4,6,-1,8,10,12,14,16,18,20,22,24,26,-1,28,-1,-1,-1,30,32,34,-1,36,38,40,-1,-1,-1,42,44,46,48,-1,50,52,-1,-1,54,-1,56,58,-1,60,-1,62,64,-1,66,68,70,-1,-1,-1,72,74,76,-1,78,-1,-1,80,82,-1,84,-1,86,88,-1,90,-1,-1,92,-1,-1,-1,-1,-1,-1,-1,-1,-1,-1,-1,-1,-1,-1,-1,-1,-1,-1,-1,-1],"split_conditions":[-1.8675427E0,-5.373378E-1,1.7297868E0,-5E-2,9.80064E-1,-1.9094715E0,-9.076433E-2,1.0119544E0,-5.296081E-1,1.8022078E0,-1.2853122E0,7.604793E-1,7.504741E-1,5.06653E-1,-5E-2,-3.63565E-1,-5E-2,-5E-2,5E-2,-1.5701054E0,1.8164634E0,-5.9542465E-1,-5E-2,-3.5532658E0,5.489235E-1,-4.065672E-1,-5E-2,5E-2,-4.340049E-2,-3.6232728E-1,-3.5177857E-1,2.4441254E0,1.2384809E0,-5E-2,6.1051375E-1,-7.677297E-1,-5E-2,-5E-2,1.6292486E-2,-5E-2,5.07115E-1,-1.7348891E-1,-5E-2,-3.5532658E0,-5E-2,1.3241848E0,1.2027749E0,-5E-2,3.8728097E-1,1.3561816E0,-1.1489492E-2,5E-2,-5E-2,-5E-2,-7.01798E-3,1.587343E0,1.3605126E0,-4.8266836E-2,-2.8716415E-1,5E-2,-5E-2,2.1911042E0,-1.0855842E0,-5E-2,8.2220525E-1,-5E-2,-1.3846701E-1,1.3283789E0,-5E-2,3.6822006E-1,-5E-2,-4.6779927E-2,1.1381637E-2,5E-2,-5E-2,-5E-2,5E-2,5E-2,-3.259967E-2,-5E-2,-1.6630365E-2,1.0202651E-2,-5E-2,-3.7400555E-2,5E-2,5E-2,-5E-2,5E-2,-5E-2,-2.1852266E-2,5E-2,5E-2,-3.5772007E-2],"split_indices":[14,4,4,0,1,17,8,10,4,11,20,21,11,3,0,13,0,0,0,13,23,23,0,25,1,4,0,0,0,6,29,7,15,0,1,16,0,0,27,0,12,4,0,25,0,17,10,0,26,14,7,0,0,0,5,0,13,0,8,0,0,15,14,0,0,0,17,3,0,2,0,0,0,0,0,0,0,0,0,0,0,0,0,0,0,0,0,0,0,0,0,0,0],"split_type":[0,0,0,0,0,0,0,0,0,0,0,0,0,0,0,0,0,0,0,0,0,0,0,0,0,0,0,0,0,0,0,0,0,0,0,0,0,0,0,0,0,0,0,0,0,0,0,0,0,0,0,0,0,0,0,0,0,0,0,0,0,0,0,0,0,0,0,0,0,0,0,0,0,0,0,0,0,0,0,0,0,0,0,0,0,0,0,0,0,0,0,0,0],"sum_hessian":[1.2205503E5,5.56782E4,6.6376836E4,4.2364294E2,5.525456E4,6.0029586E4,6.347247E3,5.4754867E4,4.9969202E2,3.416744E2,5.968791E4,3.314253E3,3.0329944E3,5.4582207E4,1.7265814E2,1.4564581E2,3.540462E2,6.0403893E1,2.8127054E2,1.6500801E3,5.8037832E4,3.151537E3,1.6271576E2,2.1372375E3,8.957568E2,5.4500484E4,8.172163E1,1.4075696E2,4.888859E0,5.960894E2,1.0539907E3,5.718902E4,8.4881067E2,8.135532E1,3.070182E3,1.5675395E2,1.9804836E3,2.888156E2,6.0694116E2,3.443463E1,5.446605E4,5.7183966E2,2.424974E1,1.6645021E2,8.8754047E2,5.690513E4,2.8389236E2,5.035499E2,3.452608E2,2.7698188E3,3.0036295E2,1.4050664E2,1.6247326E1,3.5169678E1,5.717715E2,5.4221645E4,2.4440814E2,5.8686495E0,5.65971E2,1.4050299E2,2.5947222E1,5.3624617E4,3.2805112E3,1.401635E2,1.4372885E2,4.3653477E1,3.016073E2,2.71777E3,5.204883E1,1.4174553E2,1.5861743E2,6.06561E0,5.6570593E2,5.4210973E4,1.0669886E1,9.9982475E1,1.4442566E2,5.6350305E2,2.467972E0,5.3205875E4,4.187396E2,1.2103378E3,2.0701733E3,3.468358E0,1.402605E2,2.8826797E2,1.333933E1,2.6676936E3,5.007648E1,1.4850246E0,1.402605E2,5.6227264E2,3.4332416E0],"tree_param":{"num_deleted":"0","num_feature":"30","num_nodes":"93","size_leaf_vector":"1"}}]},"name":"gbtree"},"learner_model_param":{"base_score":"[5E-1]","boost_from_average":"1","num_class":"0","num_feature":"30","num_target":"1"},"objective":{"name":"binary:logistic","reg_loss_param":{"scale_pos_weight":"578.400024"}}},"version":[3,1,3]}