{"learner":{"attributes":{},"feature_names":[],"feature_types":[],"gradient_booster":{"model":{"cats":{"enc":[],"feature_segments":[],"sorted_idx":[]},"gbtree_model_param":{"num_parallel_tree":"1","num_trees":"8"},"iteration_indptr":[0,1,2,3,4,5,6,7,8],"tree_info":[0,0,0,0,0,0,0,0],"trees":[{"base_weights":[4.2207972E-8,1E0,-1E0,-5E-2,1E0,-1E0,6.852979E-2,1E0,-8.6867905E-1,1E0,-1E0,1E0,-1E0,1E0,-5E-2,1E0,-5E-2,-5E-2,5E-2,-3.039158E-1,-1E0,1E0,-5E-2,-1E0,1E0,1E0,-5E-2,-5E-2,5E-2,1E0,-1E0,-1E0,-3.4997192E-1,-5E-2,1E0,1E0,-1E0,-5E-2,1E0,-5E-2,1E0,1E0,-5E-2,1E0,-5E-2,-1E0,-4.570604E-1,-5E-2,1E0,1E0,-5E-2,5E-2,-5E-2,4.5832467E-1,-5E-2,5E-2,-2.5925925E-2,1E0,-5E-2,-5E-2,1E0,5E-2,-5E-2,-1E0,-6.0021406E-1,-5E-2,1E0,5E-2,-5E-2,1E0,-5E-2,-5E-2,1E0,1E0,-5E-2,1E0,-3.548387E-2,-7.3353416E-1,-1E0,-5E-2,1E0,-5E-2,5E-2,1E0,-5E-2,-3.548387E-2,5E-2,-5E-2,1E0,-2.5925925E-2,5E-2,1E0,-5E-2,-1E0,-8.4988266E-1,-4.117647E-2,5E-2,1E0,-5E-2,5E-2,-5E-2,5E-2,-5E-2,-5E-2,-4.4052485E-2,5E-2,-5E-2,5E-2,-5E-2],"categories":[],"categories_nodes":[],"categories_segments":[],"categories_sizes":[],"default_left":[0,0,0,0,0,0,0,0,0,0,0,0,0,0,0,0,0,0,0,0,0,0,0,0,0,0,0,0,0,0,0,0,0,0,0,0,0,0,0,0,0,0,0,0,0,0,0,0,0,0,0,0,0,0,0,0,0,0,0,0,0,0,0,0,0,0,0,0,0,0,0,0,0,0,0,0,0,0,0,0,0,0,0,0,0,0,0,0,0,0,0,0,0,0,0,0,0,0,0,0,0,0,0,0,0,0,0,0,0],"id":0,"left_children":[1,3,5,-1,7,9,11,13,15,17,19,21,23,25,-1,27,-1,-1,-1,29,31,33,-1,35,37,39,-1,-1,-1,41,43,45,47,-1,49,51,53,-1,55,-1,57,59,-1,61,-1,63,65,-1,67,69,-1,-1,-1,71,-1,-1,-1,73,-1,-1,75,-1,-1,77,79,-1,81,-1,-1,83,-1,-1,85,87,-1,89,-1,91,93,-1,95,-1,-1,97,-1,-1,-1,-1,99,-1,-1,101,-1,103,105,-1,-1,107,-1,-1,-1,-1,-1,-1,-1,-1,-1,-1,-1],"loss_changes":[3.034212E5,3.489E3,7.0241562E3,0E0,1.8111719E3,1.8005938E3,7.854238E3,1.419E3,1.0988308E3,4.9700006E2,8.2403125E2,1.2570002E3,1.8706001E3,6.69E2,0E0,3.5E1,0E0,0E0,0E0,3.501164E3,1.4567188E2,6.37E2,0E0,1.0157998E3,4.19E2,2.79E2,0E0,0E0,0E0,1.99E2,9.3380005E2,1.07421875E2,9.3712354E2,0E0,4.91E2,1.31E2,5.0402832E2,0E0,1.0564819E1,0E0,1.53E2,4.3E1,0E0,2.11E2,0E0,6.21875E1,9.973844E2,0E0,5.9E1,3.97E2,0E0,0E0,0E0,6.2077185E2,0E0,0E0,0E0,8.7E1,0E0,0E0,1.7653198E1,0E0,0E0,2.7984375E1,1.056616E3,0E0,3.5E1,0E0,0E0,3.27E2,0E0,0E0,1.7653229E1,5.9E1,0E0,1.0564819E1,0E0,1.0388116E3,6.53125E0,0E0,2.326471E1,0E0,0E0,2.95E2,0E0,0E0,0E0,0E0,5.1E1,0E0,0E0,7.5E1,0E0,2.4375E0,1.0962711E3,0E0,0E0,2.83E2,0E0,0E0,0E0,0E0,0E0,0E0,0E0,0E0,0E0,0E0,0E0],"parents":[2147483647,0,0,1,1,2,2,4,4,5,5,6,6,7,7,8,8,9,9,10,10,11,11,12,12,13,13,15,15,19,19,20,20,21,21,23,23,24,24,25,25,29,29,30,30,31,31,32,32,34,34,35,35,36,36,38,38,40,40,41,41,43,43,45,45,46,46,48,48,49,49,53,53,57,57,60,60,63,63,64,64,66,66,69,69,72,72,73,73,75,75,77,77,78,78,80,80,83,83,88,88,91,91,93,93,94,94,97,97],"right_children":[2,4,6,-1,8,10,12,14,16,18,20,22,24,26,-1,28,-1,-1,-1,30,32,34,-1,36,38,40,-1,-1,-1,42,44,46,48,-1,50,52,54,-1,56,-1,58,60,-1,62,-1,64,66,-1,68,70,-1,-1,-1,72,-1,-1,-1,74,-1,-1,76,-1,-1,78,80,-1,82,-1,-1,84,-1,-1,86,88,-1,90,-1,92,94,-1,96,-1,-1,98,-1,-1,-1,-1,100,-1,-1,102,-1,104,106,-1,-1,108,-1,-1,-1,-1,-1,-1,-1,-1,-1,-1,-1],"split_conditions":[-1.8675427E0,-5.373378E-1,1.7969394E0,-5E-2,9.80064E-1,-1.9094715E0,-9.076433E-2,1.0119544E0,-5.296081E-1,1.8951354E0,-1.2853122E0,7.604793E-1,1.8117768E0,5.06653E-1,-5E-2,1.4686525E0,-5E-2,-5E-2,5E-2,-1.5701054E0,2.6151826E0,-5.9542465E-1,-5E-2,-3.5532658E0,5.3132844E-1,-4.065672E-1,-5E-2,-5E-2,5E-2,-3.6232728E-1,-3.5177857E-1,1.7297868E0,4.0001482E-1,-5E-2,9.894215E-1,-7.677297E-1,-2.6995976E0,-5E-2,5.588904E-1,-5E-2,9.136251E-1,-1.7348891E-1,-5E-2,-3.5532658E0,-5E-2,2.4441254E0,1.2198145E0,-5E-2,4.085011E-1,1.3066773E0,-5E-2,5E-2,-5E-2,2.0727463E0,-5E-2,5E-2,-2.5925925E-2,1.587343E0,-5E-2,-5E-2,2.1050191E-1,5E-2,-5E-2,-2.6584058E0,1.2027749E0,-5E-2,5.3681624E-1,5E-2,-5E-2,8.699383E-1,-5E-2,-5E-2,5.3132844E-1,-1.5655156E0,-5E-2,-2.0139661E-1,-3.548387E-2,-1.2051466E0,3.4930341E0,-5E-2,8.2220525E-1,-5E-2,5E-2,1.3283789E0,-5E-2,-3.548387E-2,5E-2,-5E-2,1.6451697E0,-2.5925925E-2,5E-2,-1.1453038E0,-5E-2,2.1911042E0,-2.185054E0,-4.117647E-2,5E-2,1.6449934E0,-5E-2,5E-2,-5E-2,5E-2,-5E-2,-5E-2,-4.4052485E-2,5E-2,-5E-2,5E-2,-5E-2],"split_indices":[14,4,4,0,1,17,8,10,4,2,20,21,17,3,0,0,0,0,0,13,27,23,0,25,1,4,0,0,0,6,29,4,3,0,1,16,15,0,1,0,12,4,0,25,0,7,12,0,3,0,0,0,0,6,0,0,0,0,0,0,10,0,0,19,10,0,1,0,0,27,0,0,1,11,0,10,0,14,29,0,0,0,0,3,0,0,0,0,24,0,0,9,0,15,26,0,0,14,0,0,0,0,0,0,0,0,0,0,0],"split_type":[0,0,0,0,0,0,0,0,0,0,0,0,0,0,0,0,0,0,0,0,0,0,0,0,0,0,0,0,0,0,0,0,0,0,0,0,0,0,0,0,0,0,0,0,0,0,0,0,0,0,0,0,0,0,0,0,0,0,0,0,0,0,0,0,0,0,0,0,0,0,0,0,0,0,0,0,0,0,0,0,0,0,0,0,0,0,0,0,0,0,0,0,0,0,0,0,0,0,0,0,0,0,0,0,0,0,0,0,0],"sum_hessian":[1.25802E5,5.7398652E4,6.840335E4,4.3675E2,5.6961902E4,6.22519E4,6.15145E3,5.64468E4,5.151E2,3.527E2,6.18992E4,3.34455E3,2.8069E3,5.62688E4,1.78E2,1.501E2,3.65E2,6.275E1,2.8995E2,1.706E3,6.01932E4,3.1868E3,1.5775E2,2.46295E3,3.4395E2,5.618455E4,8.425E1,5E0,1.451E2,6.149E2,1.0911E3,5.98416E4,3.516E2,8.025E1,3.10655E3,1.616E2,2.30135E3,5.3E1,2.9095E2,3.55E1,5.614905E4,5.894E2,2.55E1,1.7185E2,9.1925E2,5.946525E4,3.7635E2,1.99E2,1.526E2,3.04455E3,6.2E1,1.446E2,1.7E1,2.3435E2,2.067E3,2.892E2,1.75E0,5.61293E4,1.975E1,6E0,5.834E2,1.4485E2,2.7E1,5.90499E4,4.1535E2,2.265E2,1.4985E2,1.446E2,8E0,2.9943E3,5.025E1,8.7E1,1.4735E2,5.61178E4,1.15E1,5.8065E2,2.75E0,4.596E2,5.85903E4,2.6725E2,1.481E2,5E0,1.4485E2,2.9528E3,4.15E1,2.75E0,1.446E2,8E0,5.61098E4,1.75E0,5.789E2,1.546E2,3.05E2,5.80837E4,5.066E2,3.5E0,1.446E2,2.9153E3,3.75E1,5.61028E4,7E0,1.446E2,1E1,5.756285E4,5.2085E2,1.501E2,3.565E2,2.8793E3,3.6E1],"tree_param":{"num_deleted":"0","num_feature":"30","num_nodes":"109","size_leaf_vector":"1"}},{"base_weights":[1.129221E-3,1E0,-1E0,-5E-2,1E0,-1E0,3.0829925E-2,1E0,-8.475872E-1,1E0,-1E0,1E0,-1E0,1E0,-5E-2,1E0,-5E-2,-5E-2,5E-2,-2.9174632E-1,-1E0,1E0,-5E-2,-1E0,4.9047038E-1,1E0,-5E-2,5E-2,-4.9015522E-2,1E0,-1E0,-1E0,-3.3804196E-1,-5E-2,1E0,1E0,-5E-2,-5E-2,1E0,-5E-2,1E0,1E0,-5E-2,1E0,-5E-2,-1E0,-5.8564585E-1,-5E-2,1E0,1E0,-5E-2,5E-2,-5E-2,-5E-2,1E0,1E0,-5E-2,-5E-2,1E0,5E-2,-5E-2,-7.15642E-1,-1E0,-5E-2,1E0,5E-2,-5E-2,1E0,-5E-2,-5E-2,1E0,1E0,-5E-2,1E0,-3.6727507E-2,1E0,-5E-2,-1E0,-8.302285E-1,-4.0335875E-2,5E-2,-5E-2,1E0,1E0,-4.0192466E-2,1E0,4.6052182E-1,5E-2,-2.2741547E-2,5E-2,-5E-2,-1E0,-8.3782554E-1,1E0,-5E-2,1E0,-5E-2,5E-2,-1.9502541E-2,-5E-2,5E-2,-5E-2,5E-2,-5E-2,-4.256985E-2,-5E-2,5E-2,5E-2,-5E-2,5E-2,-5E-2],"categories":[],"categories_nodes":[],"categories_segments":[],"categories_sizes":[],"default_left":[0,0,0,0,0,0,0,0,0,0,0,0,0,0,0,0,0,0,0,0,0,0,0,0,0,0,0,0,0,0,0,0,0,0,0,0,0,0,0,0,0,0,0,0,0,0,0,0,0,0,0,0,0,0,0,0,0,0,0,0,0,0,0,0,0,0,0,0,0,0,0,0,0,0,0,0,0,0,0,0,0,0,0,0,0,0,0,0,0,0,0,0,0,0,0,0,0,0,0,0,0,0,0,0,0,0,0,0,0,0,0],"id":1,"left_children":[1,3,5,-1,7,9,11,13,15,17,19,21,23,25,-1,27,-1,-1,-1,29,31,33,-1,35,37,39,-1,-1,-1,41,43,45,47,-1,49,51,-1,-1,53,-1,55,57,-1,59,-1,61,63,-1,65,67,-1,-1,-1,-1,69,71,-1,-1,73,-1,-1,75,77,-1,79,-1,-1,81,-1,-1,83,85,-1,87,-1,89,-1,91,93,-1,-1,-1,95,97,-1,99,101,-1,-1,-1,-1,103,105,107,-1,109,-1,-1,-1,-1,-1,-1,-1,-1,-1,-1,-1,-1,-1,-1,-1],"loss_changes":[2.921985E5,3.4016875E3,6.9391406E3,0E0,1.7692969E3,1.7590625E3,6.967113E3,1.3833906E3,1.0677117E3,4.8085254E2,8.502656E2,1.3034573E3,2.056162E3,6.5215625E2,0E0,3.420404E1,0E0,0E0,0E0,3.3699778E3,1.5082812E2,6.44353E2,0E0,9.9028564E2,2.0766094E3,2.7189062E2,0E0,0E0,0E0,1.9000098E2,9.121848E2,6.7109375E1,9.066025E2,0E0,4.7860254E2,1.2565073E2,0E0,0E0,2.7794775E2,0E0,1.4904688E2,4.2002808E1,0E0,2.0365112E2,0E0,3.2546875E1,1.0233373E3,0E0,5.5450317E1,4.0840234E2,0E0,0E0,0E0,0E0,4.3750366E1,8.4703125E1,0E0,0E0,1.9065186E1,0E0,0E0,1.0073417E3,9.75E0,0E0,2.2741089E1,0E0,0E0,3.5575195E2,0E0,0E0,2.2651245E1,6.3234375E1,0E0,8.755859E0,0E0,7.30004E1,0E0,8.8125E0,1.06305E3,0E0,0E0,0E0,3.3040186E2,7.074951E0,0E0,5.1546875E1,6.1251117E2,0E0,0E0,0E0,0E0,6.796875E0,1.0734785E3,3.8049713E1,0E0,2.8165088E2,0E0,0E0,0E0,0E0,0E0,0E0,0E0,0E0,0E0,0E0,0E0,0E0,0E0,0E0,0E0],"parents":[2147483647,0,0,1,1,2,2,4,4,5,5,6,6,7,7,8,8,9,9,10,10,11,11,12,12,13,13,15,15,19,19,20,20,21,21,23,23,24,24,25,25,29,29,30,30,31,31,32,32,34,34,35,35,38,38,40,40,41,41,43,43,45,45,46,46,48,48,49,49,54,54,55,55,58,58,61,61,62,62,64,64,67,67,70,70,71,71,73,73,75,75,77,77,78,78,82,82,83,83,85,85,86,86,91,91,92,92,93,93,95,95],"right_children":[2,4,6,-1,8,10,12,14,16,18,20,22,24,26,-1,28,-1,-1,-1,30,32,34,-1,36,38,40,-1,-1,-1,42,44,46,48,-1,50,52,-1,-1,54,-1,56,58,-1,60,-1,62,64,-1,66,68,-1,-1,-1,-1,70,72,-1,-1,74,-1,-1,76,78,-1,80,-1,-1,82,-1,-1,84,86,-1,88,-1,90,-1,92,94,-1,-1,-1,96,98,-1,100,102,-1,-1,-1,-1,104,106,108,-1,110,-1,-1,-1,-1,-1,-1,-1,-1,-1,-1,-1,-1,-1,-1,-1],"split_conditions":[-1.8675427E0,-5.373378E-1,1.7297868E0,-5E-2,9.80064E-1,-1.9094715E0,-9.076433E-2,1.0119544E0,-5.296081E-1,1.8022078E0,-1.2853122E0,7.604793E-1,7.504741E-1,5.06653E-1,-5E-2,-8.624584E-1,-5E-2,-5E-2,5E-2,-1.5701054E0,2.6151826E0,-5.9542465E-1,-5E-2,-3.5532658E0,5.489235E-1,-4.065672E-1,-5E-2,5E-2,-4.9015522E-2,-3.6232728E-1,-3.5177857E-1,2.4441254E0,4.0001482E-1,-5E-2,9.894215E-1,-7.677297E-1,-5E-2,-5E-2,1.6292486E-2,-5E-2,9.136251E-1,-3.1991887E-1,-5E-2,-3.5532658E0,-5E-2,-2.6584058E0,1.2027749E0,-5E-2,4.085011E-1,1.3283789E0,-5E-2,5E-2,-5E-2,-5E-2,-7.01798E-3,1.587343E0,-5E-2,-5E-2,2.1050191E-1,5E-2,-5E-2,-1.2051466E0,3.4930341E0,-5E-2,8.2220525E-1,5E-2,-5E-2,1.7969394E0,-5E-2,-5E-2,1.1381637E-2,5.07115E-1,-5E-2,-6.9691576E-2,-3.6727507E-2,-1.1453038E0,-5E-2,2.1911042E0,-2.185054E0,-4.0335875E-2,5E-2,-5E-2,8.699383E-1,-2.1395595E-1,-4.0192466E-2,-1.5655156E0,9.025368E-1,5E-2,-2.2741547E-2,5E-2,-5E-2,3.0014408E0,1.0346116E0,-1.3446678E0,-5E-2,1.3066773E0,-5E-2,5E-2,-1.9502541E-2,-5E-2,5E-2,-5E-2,5E-2,-5E-2,-4.256985E-2,-5E-2,5E-2,5E-2,-5E-2,5E-2,-5E-2],"split_indices":[14,4,4,0,1,17,8,10,4,11,20,21,11,3,0,7,0,0,0,13,27,23,0,25,1,4,0,0,0,6,29,7,3,0,1,16,0,0,27,0,12,28,0,25,0,19,10,0,3,3,0,0,0,0,5,0,0,0,10,0,0,14,29,0,0,0,0,4,0,0,0,12,0,12,0,9,0,15,26,0,0,0,27,20,0,11,12,0,0,0,0,19,7,13,0,0,0,0,0,0,0,0,0,0,0,0,0,0,0,0,0],"split_type":[0,0,0,0,0,0,0,0,0,0,0,0,0,0,0,0,0,0,0,0,0,0,0,0,0,0,0,0,0,0,0,0,0,0,0,0,0,0,0,0,0,0,0,0,0,0,0,0,0,0,0,0,0,0,0,0,0,0,0,0,0,0,0,0,0,0,0,0,0,0,0,0,0,0,0,0,0,0,0,0,0,0,0,0,0,0,0,0,0,0,0,0,0,0,0,0,0,0,0,0,0,0,0,0,0,0,0,0,0,0,0],"sum_hessian":[1.2572349E5,5.7362797E4,6.8360695E4,4.3647714E2,5.6926316E4,6.1830723E4,6.5299697E3,5.641154E4,5.147782E2,3.5197998E2,6.1478746E4,3.4051716E3,3.1247983E3,5.6233652E4,1.778888E2,1.5000624E2,3.6477197E2,6.2211113E1,2.897689E2,1.6999391E3,5.9778805E4,3.2375264E3,1.676452E2,2.2019744E3,9.228239E2,5.6149453E4,8.4197365E1,1.4500937E2,4.9968762E0,6.140179E2,1.0859211E3,5.9428176E4,3.5063083E2,8.319799E1,3.1543284E3,1.6149905E2,2.0404755E3,2.9756415E2,6.2525977E2,3.547782E1,5.6113977E4,5.8903345E2,2.4984383E1,1.7149281E2,9.144284E2,5.9013082E4,4.1509125E2,1.9837599E2,1.5225484E2,3.0923672E3,6.196127E1,1.4475952E2,1.6739536E1,3.622781E1,5.890319E2,5.609424E4,1.9737661E1,5.9972467E0,5.8303625E2,1.4475952E2,2.673329E1,4.593129E2,5.855377E4,2.6708304E2,1.480082E2,1.4450967E2,7.7451587E0,3.0394001E3,5.296689E1,6.2460957E0,5.827858E2,5.6082746E4,1.1492816E1,5.8003754E2,2.9986682E0,1.5450343E2,3.0480945E2,5.804749E4,5.0628354E2,3.4985168E0,1.4450967E2,4.6221107E1,2.9931792E3,5.792879E2,3.4979277E0,5.585329E4,2.2945657E2,5.785384E2,1.4991771E0,1.4450967E2,9.9937525E0,5.752689E4,5.205974E2,1.5000624E2,3.5627728E2,2.950206E3,4.2973137E1,5.780387E2,1.2492191E0,7.245471E0,5.5846043E4,8.369768E1,1.457589E2,5.699712E4,5.2976886E2,3.645731E2,1.5602429E2,1.4475952E2,5.2467203E0,2.913479E3,3.6727043E1],"tree_param":{"num_deleted":"0","num_feature":"30","num_nodes":"111","size_leaf_vector":"1"}},{"base_weights":[2.1664093E-3,1E0,-1E0,-5E-2,1E0,-1E0,2.5188418E-2,1E0,-8.2752395E-1,1E0,-1E0,9.865398E-1,-1E0,1E0,-5E-2,1E0,-5E-2,-5E-2,5E-2,-2.8490075E-1,-1E0,1E0,-5E-2,-1E0,4.7872207E-1,1E0,-5E-2,5E-2,-4.7949966E-2,1E0,-1E0,-1E0,-3.29996E-1,-5E-2,1E0,1E0,-5E-2,-5E-2,1E0,-5E-2,1E0,1E0,-5E-2,1E0,-5E-2,-1E0,-5.717881E-1,-5E-2,1E0,1E0,-5E-2,5E-2,-5E-2,-5E-2,1E0,1E0,-5E-2,-5E-2,1E0,5E-2,-5E-2,-6.986128E-1,-1E0,-5E-2,1E0,5E-2,-5E-2,1E0,-5E-2,-5E-2,1E0,1E0,-5E-2,1E0,-3.413584E-2,1E0,-5E-2,-1E0,-8.105293E-1,-3.952621E-2,5E-2,-5E-2,1E0,1E0,-3.9388027E-2,1E0,4.4775245E-1,-2.5001151E-2,5E-2,5E-2,-5E-2,-1E0,-8.188813E-1,1E0,-5E-2,1E0,-5E-2,5E-2,-1.9309914E-2,-5E-2,5E-2,-5E-2,5E-2,-5E-2,-4.052354E-2,-5E-2,5E-2,-5E-2,5E-2,5E-2,-5E-2],"categories":[],"categories_nodes":[],"categories_segments":[],"categories_sizes":[],"default_left":[0,0,0,0,0,0,0,0,0,0,0,0,0,0,0,0,0,0,0,0,0,0,0,0,0,0,0,0,0,0,0,0,0,0,0,0,0,0,0,0,0,0,0,0,0,0,0,0,0,0,0,0,0,0,0,0,0,0,0,0,0,0,0,0,0,0,0,0,0,0,0,0,0,0,0,0,0,0,0,0,0,0,0,0,0,0,0,0,0,0,0,0,0,0,0,0,0,0,0,0,0,0,0,0,0,0,0,0,0,0,0],"id":2,"left_children":[1,3,5,-1,7,9,11,13,15,17,19,21,23,25,-1,27,-1,-1,-1,29,31,33,-1,35,37,39,-1,-1,-1,41,43,45,47,-1,49,51,-1,-1,53,-1,55,57,-1,59,-1,61,63,-1,65,67,-1,-1,-1,-1,69,71,-1,-1,73,-1,-1,75,77,-1,79,-1,-1,81,-1,-1,83,85,-1,87,-1,89,-1,91,93,-1,-1,-1,95,97,-1,99,101,-1,-1,-1,-1,103,105,107,-1,109,-1,-1,-1,-1,-1,-1,-1,-1,-1,-1,-1,-1,-1,-1,-1],"loss_changes":[2.8119966E5,3.3144375E3,6.8505938E3,0E0,1.7277656E3,1.7135781E3,6.5723125E3,1.3478594E3,1.036353E3,4.684204E2,8.6521875E2,1.2693398E3,2.0200298E3,6.353281E2,0E0,3.3336853E1,0E0,0E0,0E0,3.246146E3,1.5435938E2,6.2772754E2,0E0,9.6470264E2,2.0063782E3,2.6482812E2,0E0,0E0,0E0,1.8500818E2,8.885995E2,7.1890625E1,8.7575574E2,0E0,4.662207E2,1.2230557E2,0E0,0E0,2.7070813E2,0E0,1.4510938E2,4.0877075E1,0E0,1.9830887E2,0E0,3.709375E1,9.902606E2,0E0,5.3902588E1,3.9781738E2,0E0,0E0,0E0,0E0,4.2501953E1,8.240625E1,0E0,0E0,1.6932983E1,0E0,0E0,9.759076E2,1.33125E1,0E0,2.2232178E1,0E0,0E0,3.4651562E2,0E0,0E0,2.2144775E1,6.6421875E1,0E0,1.0182739E1,0E0,7.100333E1,0E0,1.2234375E1,1.0315873E3,0E0,0E0,0E0,3.2181396E2,7.006836E0,0E0,5.009375E1,5.9256604E2,0E0,0E0,0E0,0E0,1.41875E1,1.0388629E3,3.7099915E1,0E0,2.8870068E2,0E0,0E0,0E0,0E0,0E0,0E0,0E0,0E0,0E0,0E0,0E0,0E0,0E0,0E0,0E0],"parents":[2147483647,0,0,1,1,2,2,4,4,5,5,6,6,7,7,8,8,9,9,10,10,11,11,12,12,13,13,15,15,19,19,20,20,21,21,23,23,24,24,25,25,29,29,30,30,31,31,32,32,34,34,35,35,38,38,40,40,41,41,43,43,45,45,46,46,48,48,49,49,54,54,55,55,58,58,61,61,62,62,64,64,67,67,70,70,71,71,73,73,75,75,77,77,78,78,82,82,83,83,85,85,86,86,91,91,92,92,93,93,95,95],"right_children":[2,4,6,-1,8,10,12,14,16,18,20,22,24,26,-1,28,-1,-1,-1,30,32,34,-1,36,38,40,-1,-1,-1,42,44,46,48,-1,50,52,-1,-1,54,-1,56,58,-1,60,-1,62,64,-1,66,68,-1,-1,-1,-1,70,72,-1,-1,74,-1,-1,76,78,-1,80,-1,-1,82,-1,-1,84,86,-1,88,-1,90,-1,92,94,-1,-1,-1,96,98,-1,100,102,-1,-1,-1,-1,104,106,108,-1,110,-1,-1,-1,-1,-1,-1,-1,-1,-1,-1,-1,-1,-1,-1,-1],"split_conditions":[-1.8675427E0,-5.373378E-1,1.7297868E0,-5E-2,9.80064E-1,-1.9094715E0,-9.076433E-2,1.0119544E0,-5.296081E-1,1.8951354E0,-1.2853122E0,7.604793E-1,7.504741E-1,5.06653E-1,-5E-2,-3.63565E-1,-5E-2,-5E-2,5E-2,-1.5701054E0,2.6151826E0,-5.9542465E-1,-5E-2,-3.5532658E0,5.489235E-1,-4.065672E-1,-5E-2,5E-2,-4.7949966E-2,-3.6232728E-1,-3.5177857E-1,2.4441254E0,4.0001482E-1,-5E-2,9.894215E-1,-7.677297E-1,-5E-2,-5E-2,1.6292486E-2,-5E-2,9.136251E-1,-1.7348891E-1,-5E-2,-3.5532658E0,-5E-2,-2.6584058E0,1.2027749E0,-5E-2,4.085011E-1,1.3283789E0,-5E-2,5E-2,-5E-2,-5E-2,-7.01798E-3,1.587343E0,-5E-2,-5E-2,2.1050191E-1,5E-2,-5E-2,-1.2051466E0,3.4930341E0,-5E-2,8.2220525E-1,5E-2,-5E-2,1.7969394E0,-5E-2,-5E-2,1.1381637E-2,5.07115E-1,-5E-2,-2.0139661E-1,-3.413584E-2,-1.1453038E0,-5E-2,2.1911042E0,-2.185054E0,-3.952621E-2,5E-2,-5E-2,8.699383E-1,-2.1395595E-1,-3.9388027E-2,-1.5655156E0,9.025368E-1,-2.5001151E-2,5E-2,5E-2,-5E-2,3.0014408E0,1.0346116E0,-3.424789E-1,-5E-2,1.6449934E0,-5E-2,5E-2,-1.9309914E-2,-5E-2,5E-2,-5E-2,5E-2,-5E-2,-4.052354E-2,-5E-2,5E-2,-5E-2,5E-2,5E-2,-5E-2],"split_indices":[14,4,4,0,1,17,8,10,4,2,20,21,11,3,0,13,0,0,0,13,27,23,0,25,1,4,0,0,0,6,29,7,3,0,1,16,0,0,27,0,12,4,0,25,0,19,10,0,3,3,0,0,0,0,5,0,0,0,10,0,0,14,29,0,0,0,0,4,0,0,0,12,0,10,0,9,0,15,26,0,0,0,27,20,0,11,12,0,0,0,0,19,7,22,0,14,0,0,0,0,0,0,0,0,0,0,0,0,0,0,0],"split_type":[0,0,0,0,0,0,0,0,0,0,0,0,0,0,0,0,0,0,0,0,0,0,0,0,0,0,0,0,0,0,0,0,0,0,0,0,0,0,0,0,0,0,0,0,0,0,0,0,0,0,0,0,0,0,0,0,0,0,0,0,0,0,0,0,0,0,0,0,0,0,0,0,0,0,0,0,0,0,0,0,0,0,0,0,0,0,0,0,0,0,0,0,0,0,0,0,0,0,0,0,0,0,0,0,0,0,0,0,0,0,0],"sum_hessian":[1.25489055E5,5.7255613E4,6.823344E4,4.3565997E2,5.6819953E4,6.1715598E4,6.5178403E3,5.6306137E4,5.1381714E2,3.513247E2,6.1364273E4,3.398886E3,3.1189546E3,5.612858E4,1.7755576E2,1.4972809E2,3.6408905E2,6.209651E1,2.892282E2,1.6967626E3,5.966751E4,3.2315544E3,1.6733133E2,2.1978535E3,9.211009E2,5.604454E4,8.4039734E1,1.447385E2,4.9895997E0,6.128745E2,1.0838881E3,5.9317535E4,3.4997437E2,8.304223E1,3.1485122E3,1.611973E2,2.0366562E3,2.9700723E2,6.240936E2,3.54114E1,5.600913E4,5.8793695E2,2.4937607E1,1.7117172E2,9.127164E2,5.890322E4,4.143163E2,1.980046E2,1.5196976E2,3.086667E3,6.184526E1,1.444891E2,1.6708197E1,3.616121E1,5.8793243E2,5.5989426E4,1.9700708E1,5.9875956E0,5.8194934E2,1.4448848E2,2.6683239E1,4.5845294E2,5.844477E4,2.66583E2,1.4773329E2,1.442391E2,7.7306576E0,3.0337993E3,5.2867725E1,6.2344017E0,5.8169806E2,5.5977957E4,1.1471298E1,5.792034E2,2.7458959E0,1.5421414E2,3.042388E2,5.7939418E4,5.0534875E2,3.4941926E0,1.442391E2,4.613457E1,2.9876648E3,5.782049E2,3.4931264E0,5.5748727E4,2.2922975E2,1.7476923E0,5.7745575E2,1.442391E2,9.975042E0,5.7419375E4,5.2004315E2,1.4973848E2,3.5561026E2,2.944772E3,4.289268E1,5.769564E2,1.2484918E0,7.231906E0,5.5741496E4,8.374376E1,1.45486E2,5.689041E4,5.28966E2,3.6394452E2,1.5609862E2,5.249376E0,1.444891E2,2.908024E3,3.6748127E1],"tree_param":{"num_deleted":"0","num_feature":"30","num_nodes":"111","size_leaf_vector":"1"}},{"base_weights":[3.2001373E-3,1E0,-1E0,-5E-2,1E0,-1E0,1.9564116E-2,1E0,-8.0844253E-1,1E0,-1E0,9.539777E-1,-9.986891E-1,1E0,-5E-2,1E0,-5E-2,-5E-2,5E-2,-2.7839622E-1,-1E0,1E0,-5E-2,-1E0,4.6753478E-1,1E0,-5E-2,5E-2,-4.693107E-2,1E0,-1E0,-1E0,-3.223368E-1,-5E-2,1E0,1E0,-5E-2,-5E-2,1E0,-5E-2,1E0,1E0,-5E-2,1E0,-5E-2,-1E0,-5.586064E-1,-5E-2,1E0,1E0,-5E-2,5E-2,-5E-2,-5E-2,1E0,1E0,-5E-2,-5E-2,1E0,5E-2,-5E-2,-6.824051E-1,-1E0,-5E-2,1E0,5E-2,-5E-2,1E0,-5E-2,-5E-2,1E0,1E0,-5E-2,1E0,-3.5318915E-2,1E0,-5E-2,-1E0,-7.91782E-1,-3.874583E-2,5E-2,-5E-2,1E0,1E0,-3.86126E-2,1E0,4.3556523E-1,5E-2,-2.2156065E-2,5E-2,-5E-2,-1E0,-8.009637E-1,1E0,-5E-2,1E0,-5E-2,5E-2,-1.911999E-2,-5E-2,5E-2,-5E-2,5E-2,-5E-2,-3.8605716E-2,-5E-2,5E-2,5E-2,-5E-2,5E-2,-5E-2],"categories":[],"categories_nodes":[],"categories_segments":[],"categories_sizes":[],"default_left":[0,0,0,0,0,0,0,0,0,0,0,0,0,0,0,0,0,0,0,0,0,0,0,0,0,0,0,0,0,0,0,0,0,0,0,0,0,0,0,0,0,0,0,0,0,0,0,0,0,0,0,0,0,0,0,0,0,0,0,0,0,0,0,0,0,0,0,0,0,0,0,0,0,0,0,0,0,0,0,0,0,0,0,0,0,0,0,0,0,0,0,0,0,0,0,0,0,0,0,0,0,0,0,0,0,0,0,0,0,0,0],"id":3,"left_children":[1,3,5,-1,7,9,11,13,15,17,19,21,23,25,-1,27,-1,-1,-1,29,31,33,-1,35,37,39,-1,-1,-1,41,43,45,47,-1,49,51,-1,-1,53,-1,55,57,-1,59,-1,61,63,-1,65,67,-1,-1,-1,-1,69,71,-1,-1,73,-1,-1,75,77,-1,79,-1,-1,81,-1,-1,83,85,-1,87,-1,89,-1,91,93,-1,-1,-1,95,97,-1,99,101,-1,-1,-1,-1,103,105,107,-1,109,-1,-1,-1,-1,-1,-1,-1,-1,-1,-1,-1,-1,-1,-1,-1],"loss_changes":[2.7038603E5,3.2274531E3,6.7547266E3,0E0,1.6865469E3,1.66825E3,6.1919897E3,1.3124062E3,1.00485815E3,4.5631903E2,8.78375E2,1.2293503E3,1.9833354E3,6.185625E2,0E0,3.249951E1,0E0,0E0,0E0,3.1243938E3,1.5751562E2,6.1114355E2,0E0,9.391836E2,1.9369573E3,2.5771875E2,0E0,0E0,0E0,1.8002795E2,8.6507263E2,7.6453125E1,8.453305E2,0E0,4.626797E2,1.1896878E2,0E0,0E0,2.6348608E2,0E0,1.411875E2,3.982129E1,0E0,1.9298007E2,0E0,4.159375E1,9.574509E2,0E0,5.2358704E1,3.7430713E2,0E0,0E0,0E0,0E0,4.1257324E1,8.0109375E1,0E0,0E0,1.8262573E1,0E0,0E0,9.4458826E2,1.70625E1,0E0,2.1737488E1,0E0,0E0,3.6135547E2,0E0,0E0,2.1652466E1,6.946875E1,0E0,8.527466E0,0E0,6.901123E1,0E0,1.575E1,1.0000437E3,0E0,0E0,0E0,3.0355566E2,6.939209E0,0E0,4.865625E1,5.727969E2,0E0,0E0,0E0,0E0,2.265625E1,1.0041235E3,3.6150238E1,0E0,2.8734424E2,0E0,0E0,0E0,0E0,0E0,0E0,0E0,0E0,0E0,0E0,0E0,0E0,0E0,0E0,0E0],"parents":[2147483647,0,0,1,1,2,2,4,4,5,5,6,6,7,7,8,8,9,9,10,10,11,11,12,12,13,13,15,15,19,19,20,20,21,21,23,23,24,24,25,25,29,29,30,30,31,31,32,32,34,34,35,35,38,38,40,40,41,41,43,43,45,45,46,46,48,48,49,49,54,54,55,55,58,58,61,61,62,62,64,64,67,67,70,70,71,71,73,73,75,75,77,77,78,78,82,82,83,83,85,85,86,86,91,91,92,92,93,93,95,95],"right_children":[2,4,6,-1,8,10,12,14,16,18,20,22,24,26,-1,28,-1,-1,-1,30,32,34,-1,36,38,40,-1,-1,-1,42,44,46,48,-1,50,52,-1,-1,54,-1,56,58,-1,60,-1,62,64,-1,66,68,-1,-1,-1,-1,70,72,-1,-1,74,-1,-1,76,78,-1,80,-1,-1,82,-1,-1,84,86,-1,88,-1,90,-1,92,94,-1,-1,-1,96,98,-1,100,102,-1,-1,-1,-1,104,106,108,-1,110,-1,-1,-1,-1,-1,-1,-1,-1,-1,-1,-1,-1,-1,-1,-1],"split_conditions":[-1.8675427E0,-5.373378E-1,1.7297868E0,-5E-2,9.80064E-1,-1.9094715E0,-9.076433E-2,1.0119544E0,-5.296081E-1,1.8022078E0,-1.2853122E0,7.604793E-1,7.504741E-1,5.06653E-1,-5E-2,4.9477298E-2,-5E-2,-5E-2,5E-2,-1.5701054E0,2.6151826E0,-5.9542465E-1,-5E-2,-3.5532658E0,5.489235E-1,-4.065672E-1,-5E-2,5E-2,-4.693107E-2,-3.6232728E-1,-3.5177857E-1,2.4441254E0,4.0001482E-1,-5E-2,1.3066773E0,-7.677297E-1,-5E-2,-5E-2,1.6292486E-2,-5E-2,9.136251E-1,-3.1991887E-1,-5E-2,-3.5532658E0,-5E-2,-2.6584058E0,1.2027749E0,-5E-2,4.085011E-1,9.894215E-1,-5E-2,5E-2,-5E-2,-5E-2,-7.01798E-3,1.587343E0,-5E-2,-5E-2,2.1050191E-1,5E-2,-5E-2,-1.2051466E0,3.4930341E0,-5E-2,8.2220525E-1,5E-2,-5E-2,1.7969394E0,-5E-2,-5E-2,1.1381637E-2,5.07115E-1,-5E-2,-6.9691576E-2,-3.5318915E-2,-1.1453038E0,-5E-2,2.1911042E0,-2.185054E0,-3.874583E-2,5E-2,-5E-2,1.6449934E0,-2.1395595E-1,-3.86126E-2,-1.5655156E0,9.025368E-1,5E-2,-2.2156065E-2,5E-2,-5E-2,3.0014408E0,1.0346116E0,3.9323923E-1,-5E-2,1.3283789E0,-5E-2,5E-2,-1.911999E-2,-5E-2,5E-2,-5E-2,5E-2,-5E-2,-3.8605716E-2,-5E-2,5E-2,5E-2,-5E-2,5E-2,-5E-2],"split_indices":[14,4,4,0,1,17,8,10,4,11,20,21,11,3,0,27,0,0,0,13,27,23,0,25,1,4,0,0,0,6,29,7,3,0,0,16,0,0,27,0,12,28,0,25,0,19,10,0,3,1,0,0,0,0,5,0,0,0,10,0,0,14,29,0,0,0,0,4,0,0,0,12,0,12,0,9,0,15,26,0,0,0,14,20,0,11,12,0,0,0,0,19,7,28,0,3,0,0,0,0,0,0,0,0,0,0,0,0,0,0,0],"split_type":[0,0,0,0,0,0,0,0,0,0,0,0,0,0,0,0,0,0,0,0,0,0,0,0,0,0,0,0,0,0,0,0,0,0,0,0,0,0,0,0,0,0,0,0,0,0,0,0,0,0,0,0,0,0,0,0,0,0,0,0,0,0,0,0,0,0,0,0,0,0,0,0,0,0,0,0,0,0,0,0,0,0,0,0,0,0,0,0,0,0,0,0,0,0,0,0,0,0,0,0,0,0,0,0,0,0,0,0,0,0,0],"sum_hessian":[1.2509942E5,5.707743E4,6.802199E4,4.3430243E2,5.664313E4,6.1524184E4,6.4978096E3,5.6130906E4,5.122206E2,3.5023376E2,6.117395E4,3.3885642E3,3.1092454E3,5.5953906E4,1.7700249E2,1.4926608E2,3.6295453E2,6.1904884E1,2.883289E2,1.6914855E3,5.9482465E4,3.2217544E3,1.6680992E2,2.1910068E3,9.182386E2,5.5870125E4,8.377786E1,1.4428818E2,4.977909E0,6.109748E2,1.0805106E3,5.9133582E4,3.4888385E2,8.278346E1,3.1389707E3,1.6069565E2,2.0303112E3,2.960819E2,6.221567E2,3.5301056E1,5.5834824E4,5.861149E2,2.48599E1,1.7063837E2,9.098723E2,5.872055E4,4.130292E2,1.973876E2,1.5149625E2,3.0778848E3,6.108601E1,1.4403952E2,1.6656132E1,3.6049747E1,5.8610693E2,5.5815188E4,1.963932E1,5.973004E0,5.801419E2,1.4403827E2,2.6600092E1,4.570244E2,5.8263527E4,2.6575232E2,1.4727689E2,1.4378967E2,7.7065687E0,3.026922E3,5.0962795E1,6.214975E0,5.798919E2,5.580375E4,1.1435554E1,5.7715265E2,2.9892373E0,1.5373363E2,3.0329077E2,5.775974E4,5.037884E2,3.4872122E0,1.4378967E2,4.92226E1,2.9776995E3,5.7640625E2,3.4857008E0,5.557503E4,2.287179E2,5.756571E2,1.4955314E0,1.4378967E2,9.94396E0,5.7240895E4,5.1884216E2,1.4928624E2,3.5450217E2,2.937993E3,3.9706493E1,5.751587E2,1.2475383E0,7.2093706E0,5.5567824E4,8.3685234E1,1.4503267E2,5.6713137E4,5.277594E2,3.6286426E2,1.5597792E2,1.4403952E2,5.2467203E0,2.8987144E3,3.927864E1],"tree_param":{"num_deleted":"0","num_feature":"30","num_nodes":"111","size_leaf_vector":"1"}},{"base_weights":[4.2339545E-3,1E0,-1E0,-5E-2,1E0,-1E0,1.3948698E-2,1E0,-7.902946E-1,1E0,-1E0,9.224488E-1,-9.761835E-1,1E0,-5E-2,1E0,-5E-2,-5E-2,5E-2,-2.7221134E-1,-1E0,1E0,-5E-2,-1E0,4.5688087E-1,1E0,-5E-2,-4.6082594E-2,5E-2,1E0,-1E0,-1E0,-5.408407E-1,-5E-2,1E0,1E0,-5E-2,-5E-2,1E0,-5E-2,1E0,1E0,-5E-2,1E0,-5E-2,-1E0,-2.124783E-2,-5E-2,1E0,1E0,-5E-2,5E-2,-5E-2,-5E-2,1E0,1E0,2.4619287E-1,-4.9965087E-2,1E0,5E-2,-5E-2,-6.429389E-1,-1E0,-5E-2,1E0,-5E-2,1E0,1E0,-5E-2,-5E-2,1E0,1E0,-5E-2,-5E-2,1E0,1E0,-3.2862842E-2,1E0,-5E-2,-1E0,-7.502595E-1,-3.7993204E-2,5E-2,1E0,-5E-2,-5E-2,1E0,1E0,-3.7864674E-2,-5E-2,1E0,-4.2693373E-2,5E-2,-2.4107255E-2,5E-2,5E-2,-5E-2,-1E0,-7.728637E-1,1E0,-5E-2,-3.5606965E-2,5E-2,1E0,-5E-2,5E-2,-1.8932728E-2,5E-2,-5E-2,-5E-2,-3.8236823E-2,5E-2,-5E-2,-4.7683503E-2,5E-2,5E-2,-5E-2],"categories":[],"categories_nodes":[],"categories_segments":[],"categories_sizes":[],"default_left":[0,0,0,0,0,0,0,0,0,0,0,0,0,0,0,0,0,0,0,0,0,0,0,0,0,0,0,0,0,0,0,0,0,0,0,0,0,0,0,0,0,0,0,0,0,0,0,0,0,0,0,0,0,0,0,0,0,0,0,0,0,0,0,0,0,0,0,0,0,0,0,0,0,0,0,0,0,0,0,0,0,0,0,0,0,0,0,0,0,0,0,0,0,0,0,0,0,0,0,0,0,0,0,0,0,0,0,0,0,0,0,0,0,0,0,0,0],"id":4,"left_children":[1,3,5,-1,7,9,11,13,15,17,19,21,23,25,-1,27,-1,-1,-1,29,31,33,-1,35,37,39,-1,-1,-1,41,43,45,47,-1,49,51,-1,-1,53,-1,55,57,-1,59,-1,61,63,-1,65,67,-1,-1,-1,-1,69,71,73,-1,75,-1,-1,77,79,-1,81,-1,83,85,-1,-1,87,89,-1,-1,91,93,-1,95,-1,97,99,-1,-1,101,-1,-1,103,105,-1,-1,107,-1,-1,-1,-1,-1,-1,109,111,113,-1,-1,-1,115,-1,-1,-1,-1,-1,-1,-1,-1,-1,-1,-1,-1,-1],"loss_changes":[2.5976908E5,3.14075E3,6.651875E3,0E0,1.6456562E3,1.6230469E3,5.8289697E3,1.2770625E3,9.7332446E2,4.4396338E2,8.896875E2,1.1829226E3,1.944354E3,6.018281E2,0E0,3.1780823E1,0E0,0E0,0E0,3.0048948E3,1.7775E2,5.9462085E2,0E0,9.1375977E2,1.8684603E3,2.5070312E2,0E0,0E0,0E0,1.750664E2,8.4163367E2,2.7732812E2,1.6759893E3,0E0,4.5047876E2,1.1564447E2,0E0,0E0,2.5629114E2,0E0,1.3873438E2,3.8772705E1,0E0,1.8767105E2,0E0,5.246875E1,7.2842114E2,0E0,3.1961798E2,3.6413672E2,0E0,0E0,0E0,0E0,4.0016724E1,7.421875E1,6.121328E2,0E0,1.62417E1,0E0,0E0,9.070258E2,2.5875E1,0E0,2.1256622E1,0E0,9.5002625E1,3.5153076E2,0E0,0E0,2.1174072E1,4.721875E1,0E0,0E0,2.6703033E1,9.808228E0,0E0,6.702655E1,0E0,2.396875E1,9.656996E2,0E0,0E0,1.908966E1,0E0,0E0,3.0812695E2,6.8724365E0,0E0,0E0,3.9109375E1,0E0,0E0,0E0,0E0,0E0,0E0,2.3390625E1,1.0976686E3,3.3122986E1,0E0,0E0,0E0,2.704131E2,0E0,0E0,0E0,0E0,0E0,0E0,0E0,0E0,0E0,0E0,0E0,0E0,0E0],"parents":[2147483647,0,0,1,1,2,2,4,4,5,5,6,6,7,7,8,8,9,9,10,10,11,11,12,12,13,13,15,15,19,19,20,20,21,21,23,23,24,24,25,25,29,29,30,30,31,31,32,32,34,34,35,35,38,38,40,40,41,41,43,43,45,45,46,46,48,48,49,49,54,54,55,55,56,56,58,58,61,61,62,62,64,64,66,66,67,67,70,70,71,71,74,74,75,75,77,77,79,79,80,80,83,83,86,86,87,87,90,90,97,97,98,98,99,99,103,103],"right_children":[2,4,6,-1,8,10,12,14,16,18,20,22,24,26,-1,28,-1,-1,-1,30,32,34,-1,36,38,40,-1,-1,-1,42,44,46,48,-1,50,52,-1,-1,54,-1,56,58,-1,60,-1,62,64,-1,66,68,-1,-1,-1,-1,70,72,74,-1,76,-1,-1,78,80,-1,82,-1,84,86,-1,-1,88,90,-1,-1,92,94,-1,96,-1,98,100,-1,-1,102,-1,-1,104,106,-1,-1,108,-1,-1,-1,-1,-1,-1,110,112,114,-1,-1,-1,116,-1,-1,-1,-1,-1,-1,-1,-1,-1,-1,-1,-1,-1],"split_conditions":[-1.8675427E0,-5.373378E-1,1.7297868E0,-5E-2,9.80064E-1,-1.9094715E0,-9.076433E-2,1.0119544E0,-5.296081E-1,1.8951354E0,-1.2853122E0,7.604793E-1,7.504741E-1,5.06653E-1,-5E-2,1.4686525E0,-5E-2,-5E-2,5E-2,-1.5701054E0,1.8164634E0,-5.9542465E-1,-5E-2,-3.5532658E0,5.489235E-1,-4.065672E-1,-5E-2,-4.6082594E-2,5E-2,-3.6232728E-1,-3.5177857E-1,2.4441254E0,1.2384809E0,-5E-2,1.3066773E0,-7.677297E-1,-5E-2,-5E-2,1.6292486E-2,-5E-2,5.07115E-1,-1.7348891E-1,-5E-2,-3.5532658E0,-5E-2,-2.6584058E0,1.2027749E0,-5E-2,3.8728097E-1,9.894215E-1,-5E-2,5E-2,-5E-2,-5E-2,-7.01798E-3,1.587343E0,1.3605126E0,-4.9965087E-2,2.1050191E-1,5E-2,-5E-2,-1.2051466E0,3.4930341E0,-5E-2,8.2220525E-1,-5E-2,-1.3846701E-1,1.7969394E0,-5E-2,-5E-2,1.1381637E-2,-1.5655156E0,-5E-2,-5E-2,9.365773E-1,-2.0139661E-1,-3.2862842E-2,-1.1453038E0,-5E-2,2.1722724E0,-2.185054E0,-3.7993204E-2,5E-2,-3.186315E-2,-5E-2,-5E-2,8.699383E-1,-2.1395595E-1,-3.7864674E-2,-5E-2,1.6451697E0,-4.2693373E-2,5E-2,-2.4107255E-2,5E-2,5E-2,-5E-2,2.1911042E0,-3.526659E-1,-7.906003E-1,-5E-2,-3.5606965E-2,5E-2,1.6449934E0,-5E-2,5E-2,-1.8932728E-2,5E-2,-5E-2,-5E-2,-3.8236823E-2,5E-2,-5E-2,-4.7683503E-2,5E-2,5E-2,-5E-2],"split_indices":[14,4,4,0,1,17,8,10,4,2,20,21,11,3,0,0,0,0,0,13,23,23,0,25,1,4,0,0,0,6,29,7,15,0,0,16,0,0,27,0,12,4,0,25,0,19,10,0,26,1,0,0,0,0,5,0,13,0,10,0,0,14,29,0,0,0,17,4,0,0,0,11,0,0,1,10,0,9,0,11,26,0,0,11,0,0,27,20,0,0,24,0,0,0,0,0,0,15,29,22,0,0,0,14,0,0,0,0,0,0,0,0,0,0,0,0,0],"split_type":[0,0,0,0,0,0,0,0,0,0,0,0,0,0,0,0,0,0,0,0,0,0,0,0,0,0,0,0,0,0,0,0,0,0,0,0,0,0,0,0,0,0,0,0,0,0,0,0,0,0,0,0,0,0,0,0,0,0,0,0,0,0,0,0,0,0,0,0,0,0,0,0,0,0,0,0,0,0,0,0,0,0,0,0,0,0,0,0,0,0,0,0,0,0,0,0,0,0,0,0,0,0,0,0,0,0,0,0,0,0,0,0,0,0,0,0,0],"sum_hessian":[1.2455662E5,5.682913E4,6.772749E4,4.3241147E2,5.6396715E4,6.1257516E4,6.4699746E3,5.588672E4,5.09997E2,3.4871625E2,6.09088E4,3.3742544E3,3.0957202E3,5.571049E4,1.7623181E2,1.4862279E2,3.613742E2,6.163908E1,2.8707718E2,1.6841353E3,5.9224664E4,3.2081707E3,1.6608363E2,2.1814688E3,9.142514E2,5.5627074E4,8.341309E1,4.9602914E0,1.4366249E2,6.0832916E2,1.075806E3,5.836283E4,8.6183746E2,8.242303E1,3.1257478E3,1.5999658E2,2.0214722E3,2.9479294E2,6.194585E2,3.5147354E1,5.5591926E4,5.835775E2,2.475166E1,1.6989539E2,9.059107E2,5.807312E4,2.8970593E2,5.138598E2,3.479777E2,3.0648384E3,6.090933E1,1.4341296E2,1.658361E1,3.5894E1,5.8356445E2,5.5343953E4,2.479724E2,5.950797E0,5.776267E2,1.434111E2,2.6484274E1,4.4562885E2,5.7627492E4,1.4306459E2,1.4664134E2,4.455932E1,3.0341837E2,3.0140974E3,5.0740902E1,6.187915E0,5.773765E2,5.5333062E4,1.089073E1,1.005843E2,1.473881E2,5.748926E2,2.7340908E0,1.5306425E2,2.925646E2,5.7137027E4,4.9046716E2,3.477755E0,1.4316359E2,2.897931E2,1.3625284E1,4.9008286E1,2.9650894E3,5.739007E2,3.4758294E0,7.177981E0,5.5325887E4,4.2245173E0,1.4316359E2,1.7409172E0,5.731517E2,1.4316359E2,9.900663E0,5.65805E4,5.565272E2,1.4839925E2,3.4206793E2,3.2177157E0,2.8657535E2,2.9237356E3,4.1353657E1,5.7265436E2,1.2463666E0,5.532065E4,5.236897E0,5.607267E4,5.0782874E2,1.6247005E2,3.940572E2,4.988145E0,1.434111E2,2.887578E3,3.615767E1],"tree_param":{"num_deleted":"0","num_feature":"30","num_nodes":"117","size_leaf_vector":"1"}},{"base_weights":[5.1603685E-3,1E0,-1E0,-5E-2,1E0,-1E0,8.303045E-3,1E0,-7.7303237E-1,1E0,-1E0,8.918264E-1,-9.5477533E-1,1E0,-5E-2,1E0,-5E-2,-5E-2,5E-2,-2.6633582E-1,-1E0,1E0,-5E-2,-1E0,4.4673413E-1,1E0,-5E-2,5E-2,-4.5029618E-2,1E0,-1E0,-1E0,-5.263717E-1,-5E-2,1E0,1E0,-5E-2,-5E-2,1E0,-5E-2,1E0,1E0,-5E-2,1E0,-5E-2,-1E0,-2.0931425E-2,-5E-2,1E0,1E0,-2.116119E-1,5E-2,-5E-2,-5E-2,1E0,1E0,2.396398E-1,-4.8817735E-2,1E0,5E-2,-5E-2,-6.287842E-1,-1E0,-5E-2,1E0,-5E-2,1E0,1E0,-5E-2,1E0,-5E-2,-4.9068604E-2,1E0,1E0,-5E-2,-5E-2,1E0,1E0,-3.3989787E-2,1E0,-5E-2,-1E0,-7.486365E-1,-3.7266888E-2,5E-2,1E0,-5E-2,1E0,-5E-2,-2.1239595E-2,5E-2,1E0,-3.714281E-2,-5E-2,1E0,-4.178582E-2,5E-2,5E-2,-2.159088E-2,5E-2,-5E-2,-1E0,-6.653518E-1,-5E-2,1E0,-3.496394E-2,5E-2,1E0,-5E-2,5E-2,-1.8748095E-2,5E-2,-5E-2,-5E-2,-3.5743933E-2,-5E-2,5E-2,5E-2,-4.8763677E-2,-5E-2,5E-2],"categories":[],"categories_nodes":[],"categories_segments":[],"categories_sizes":[],"default_left":[0,0,0,0,0,0,0,0,0,0,0,0,0,0,0,0,0,0,0,0,0,0,0,0,0,0,0,0,0,0,0,0,0,0,0,0,0,0,0,0,0,0,0,0,0,0,0,0,0,0,0,0,0,0,0,0,0,0,0,0,0,0,0,0,0,0,0,0,0,0,0,0,0,0,0,0,0,0,0,0,0,0,0,0,0,0,0,0,0,0,0,0,0,0,0,0,0,0,0,0,0,0,0,0,0,0,0,0,0,0,0,0,0,0,0,0,0,0,0,0,0],"id":5,"left_children":[1,3,5,-1,7,9,11,13,15,17,19,21,23,25,-1,27,-1,-1,-1,29,31,33,-1,35,37,39,-1,-1,-1,41,43,45,47,-1,49,51,-1,-1,53,-1,55,57,-1,59,-1,61,63,-1,65,67,69,-1,-1,-1,71,73,75,-1,77,-1,-1,79,81,-1,83,-1,85,87,-1,89,-1,-1,91,93,-1,-1,95,97,-1,99,-1,101,103,-1,-1,105,-1,107,-1,-1,-1,109,-1,-1,111,-1,-1,-1,-1,-1,-1,113,115,-1,117,-1,-1,119,-1,-1,-1,-1,-1,-1,-1,-1,-1,-1,-1,-1,-1],"loss_changes":[2.4938592E5,3.0545156E3,6.541867E3,0E0,1.6050312E3,1.5780703E3,5.4836294E3,1.2419375E3,9.4184546E2,4.3196838E2,8.9914844E2,1.1307891E3,1.9020647E3,5.851875E2,0E0,3.0906616E1,0E0,0E0,0E0,2.8877715E3,1.8870312E2,5.7818066E2,0E0,8.884619E2,1.8009929E3,2.4367188E2,0E0,0E0,0E0,1.7012952E2,8.183115E2,2.7595312E2,1.619805E3,0E0,4.4506958E2,1.1233667E2,0E0,0E0,2.4913159E2,0E0,1.4057812E2,3.7670044E1,0E0,1.8238841E2,0E0,5.6757812E1,7.017543E2,0E0,3.107298E2,4.009497E2,8.0638293E2,0E0,0E0,0E0,3.8786377E1,7.20625E1,5.9021545E2,0E0,1.7493164E1,0E0,0E0,8.7614246E2,3.0234375E1,0E0,2.0789124E1,0E0,9.228424E1,3.6281787E2,0E0,8.148132E0,0E0,0E0,2.070874E1,4.578125E1,0E0,0E0,2.6034454E1,8.303101E0,0E0,6.505176E1,0E0,4.9132812E1,1.198119E3,0E0,0E0,1.869336E1,0E0,2.8166406E2,0E0,0E0,0E0,6.8062744E0,0E0,0E0,3.8046875E1,0E0,0E0,0E0,0E0,0E0,0E0,3.9882812E1,9.8328894E2,0E0,3.762387E1,0E0,0E0,2.2266846E2,0E0,0E0,0E0,0E0,0E0,0E0,0E0,0E0,0E0,0E0,0E0,0E0,0E0],"parents":[2147483647,0,0,1,1,2,2,4,4,5,5,6,6,7,7,8,8,9,9,10,10,11,11,12,12,13,13,15,15,19,19,20,20,21,21,23,23,24,24,25,25,29,29,30,30,31,31,32,32,34,34,35,35,38,38,40,40,41,41,43,43,45,45,46,46,48,48,49,49,50,50,54,54,55,55,56,56,58,58,61,61,62,62,64,64,66,66,67,67,69,69,72,72,73,73,76,76,77,77,79,79,81,81,82,82,85,85,87,87,91,91,94,94,101,101,102,102,104,104,107,107],"right_children":[2,4,6,-1,8,10,12,14,16,18,20,22,24,26,-1,28,-1,-1,-1,30,32,34,-1,36,38,40,-1,-1,-1,42,44,46,48,-1,50,52,-1,-1,54,-1,56,58,-1,60,-1,62,64,-1,66,68,70,-1,-1,-1,72,74,76,-1,78,-1,-1,80,82,-1,84,-1,86,88,-1,90,-1,-1,92,94,-1,-1,96,98,-1,100,-1,102,104,-1,-1,106,-1,108,-1,-1,-1,110,-1,-1,112,-1,-1,-1,-1,-1,-1,114,116,-1,118,-1,-1,120,-1,-1,-1,-1,-1,-1,-1,-1,-1,-1,-1,-1,-1],"split_conditions":[-1.8675427E0,-5.373378E-1,1.7297868E0,-5E-2,9.80064E-1,-1.9094715E0,-9.076433E-2,1.0119544E0,-5.296081E-1,1.8022078E0,-1.2853122E0,7.604793E-1,7.504741E-1,5.06653E-1,-5E-2,4.9477298E-2,-5E-2,-5E-2,5E-2,-1.5701054E0,1.8164634E0,-5.9542465E-1,-5E-2,-3.5532658E0,5.489235E-1,-4.065672E-1,-5E-2,5E-2,-4.5029618E-2,-3.6232728E-1,-3.5177857E-1,2.4441254E0,1.2384809E0,-5E-2,6.1051375E-1,-7.677297E-1,-5E-2,-5E-2,1.6292486E-2,-5E-2,5.07115E-1,-3.1991887E-1,-5E-2,-3.5532658E0,-5E-2,-2.6584058E0,1.2027749E0,-5E-2,3.8728097E-1,1.3561816E0,-1.1489492E-2,5E-2,-5E-2,-5E-2,-7.01798E-3,1.587343E0,1.3605126E0,-4.8817735E-2,2.1050191E-1,5E-2,-5E-2,-1.2051466E0,3.0014408E0,-5E-2,8.2220525E-1,-5E-2,-1.3846701E-1,1.3283789E0,-5E-2,3.6822006E-1,-5E-2,-4.9068604E-2,1.1381637E-2,-1.5655156E0,-5E-2,-5E-2,9.365773E-1,-6.9691576E-2,-3.3989787E-2,-1.1453038E0,-5E-2,2.1911042E0,9.5225966E-1,-3.7266888E-2,5E-2,-3.186315E-2,-5E-2,8.699383E-1,-5E-2,-2.1239595E-2,5E-2,-2.1395595E-1,-3.714281E-2,-5E-2,1.6451697E0,-4.178582E-2,5E-2,5E-2,-2.159088E-2,5E-2,-5E-2,2.4944305E0,1.0072101E0,-5E-2,-1.823447E0,-3.496394E-2,5E-2,1.7969394E0,-5E-2,5E-2,-1.8748095E-2,5E-2,-5E-2,-5E-2,-3.5743933E-2,-5E-2,5E-2,5E-2,-4.8763677E-2,-5E-2,5E-2],"split_indices":[14,4,4,0,1,17,8,10,4,11,20,21,11,3,0,27,0,0,0,13,23,23,0,25,1,4,0,0,0,6,29,7,15,0,1,16,0,0,27,0,12,28,0,25,0,19,10,0,26,14,7,0,0,0,5,0,13,0,10,0,0,14,19,0,0,0,17,3,0,2,0,0,0,11,0,0,1,12,0,9,0,15,16,0,0,11,0,27,0,0,0,20,0,0,24,0,0,0,0,0,0,26,7,0,9,0,0,4,0,0,0,0,0,0,0,0,0,0,0,0,0],"split_type":[0,0,0,0,0,0,0,0,0,0,0,0,0,0,0,0,0,0,0,0,0,0,0,0,0,0,0,0,0,0,0,0,0,0,0,0,0,0,0,0,0,0,0,0,0,0,0,0,0,0,0,0,0,0,0,0,0,0,0,0,0,0,0,0,0,0,0,0,0,0,0,0,0,0,0,0,0,0,0,0,0,0,0,0,0,0,0,0,0,0,0,0,0,0,0,0,0,0,0,0,0,0,0,0,0,0,0,0,0,0,0,0,0,0,0,0,0,0,0,0,0],"sum_hessian":[1.2386696E5,5.6511973E4,6.7354984E4,4.2999622E2,5.6081977E4,6.0920504E4,6.4344854E3,5.557482E4,5.0715848E2,3.4677594E2,6.0573727E4,3.3560403E3,3.0784448E3,5.539957E4,1.7524747E2,1.4780272E2,3.5935574E2,6.129851E1,2.8547745E2,1.6747471E3,5.889898E4,3.1908843E3,1.6515596E2,2.169286E3,9.091591E2,5.5316625E4,8.294718E1,1.428625E2,4.940223E0,6.0494995E2,1.0697971E3,5.8040508E4,8.5847156E2,8.196265E1,3.1089216E3,1.5910353E2,2.0101823E3,2.9314655E2,6.160126E2,3.495104E1,5.528167E4,5.803365E2,2.4613407E1,1.6894643E2,9.008507E2,5.7752414E4,2.8809543E2,5.1099487E2,3.4747668E2,2.8073357E3,3.0158594E2,1.4261255E2,1.6490982E1,3.5694717E1,5.803178E2,5.503487E4,2.4680278E2,5.924281E0,5.7441223E2,1.4261009E2,2.6336346E1,4.431398E2,5.7309273E4,1.4226549E2,1.4582994E2,4.431352E1,3.0316318E2,2.7555806E3,5.1755066E1,1.4384076E2,1.5774518E2,6.153352E0,5.741645E2,5.502404E4,1.0829899E1,1.0022941E2,1.4657338E2,5.714408E2,2.971464E0,1.5220932E2,2.9093048E2,5.675651E4,5.5276154E2,3.4659953E0,1.4236395E2,2.89608E2,1.3555163E1,2.7055115E3,5.00691E1,1.4768045E0,1.4236395E2,5.707008E2,3.4636858E0,7.137888E0,5.5016902E4,4.209422E0,1.4236395E2,5.699518E2,1.4889809E0,1.4236395E2,9.845363E0,5.627801E4,4.785009E2,4.0350638E2,1.4925519E2,3.2053118E0,2.8640268E2,2.6667793E3,3.8732143E1,5.694558E2,1.2449838E0,5.5011656E4,5.2467203E0,5.5731E4,5.4700836E2,3.2484122E2,1.5365967E2,1.4333076E2,5.924417E0,3.1997429E1,2.634782E3],"tree_param":{"num_deleted":"0","num_feature":"30","num_nodes":"121","size_leaf_vector":"1"}},{"base_weights":[6.167201E-3,1E0,-1E0,-5E-2,1E0,-1E0,4.1043926E-3,1E0,-7.566176E-1,1E0,-1E0,8.6472076E-1,-9.344124E-1,1E0,-5E-2,1E0,-5E-2,-5E-2,5E-2,-2.6075348E-1,-1E0,9.99304E-1,-5E-2,-1E0,4.3706313E-1,1E0,-5E-2,-4.4265963E-2,5E-2,1E0,-1E0,-1E0,-5.1258844E-1,-5E-2,1E0,1E0,-5E-2,-5E-2,1E0,-5E-2,1E0,1E0,-5E-2,1E0,-5E-2,-1E0,-2.0645719E-2,-5E-2,1E0,1E0,-2.0974694E-1,5E-2,-5E-2,-5E-2,1E0,1E0,2.3337616E-1,-4.787418E-2,1E0,5E-2,-5E-2,-6.1531067E-1,-1E0,-5E-2,1E0,-5E-2,1E0,1E0,-5E-2,1E0,-5E-2,-4.7895692E-2,1E0,1E0,-5E-2,-5E-2,1E0,1E0,-3.166631E-2,1E0,-5E-2,-1E0,-8.6323327E-1,-3.6565527E-2,5E-2,1E0,-5E-2,1E0,-5E-2,-2.100662E-2,5E-2,1E0,-3.6445674E-2,-5E-2,1E0,-4.091454E-2,5E-2,-2.3255875E-2,5E-2,5E-2,-5E-2,-1E0,-4.9541786E-1,4.3718034E-1,-1E0,-3.43414E-2,5E-2,1E0,-5E-2,5E-2,-1.8566048E-2,5E-2,-5E-2,-5E-2,-3.278125E-2,-5E-2,5E-2,-5E-2,5E-2,4.0886145E-2,-5E-2,-5E-2,5E-2],"categories":[],"categories_nodes":[],"categories_segments":[],"categories_sizes":[],"default_left":[0,0,0,0,0,0,0,0,0,0,0,0,0,0,0,0,0,0,0,0,0,0,0,0,0,0,0,0,0,0,0,0,0,0,0,0,0,0,0,0,0,0,0,0,0,0,0,0,0,0,0,0,0,0,0,0,0,0,0,0,0,0,0,0,0,0,0,0,0,0,0,0,0,0,0,0,0,0,0,0,0,0,0,0,0,0,0,0,0,0,0,0,0,0,0,0,0,0,0,0,0,0,0,0,0,0,0,0,0,0,0,0,0,0,0,0,0,0,0,0,0,0,0],"id":6,"left_children":[1,3,5,-1,7,9,11,13,15,17,19,21,23,25,-1,27,-1,-1,-1,29,31,33,-1,35,37,39,-1,-1,-1,41,43,45,47,-1,49,51,-1,-1,53,-1,55,57,-1,59,-1,61,63,-1,65,67,69,-1,-1,-1,71,73,75,-1,77,-1,-1,79,81,-1,83,-1,85,87,-1,89,-1,-1,91,93,-1,-1,95,97,-1,99,-1,101,103,-1,-1,105,-1,107,-1,-1,-1,109,-1,-1,111,-1,-1,-1,-1,-1,-1,113,115,117,119,-1,-1,121,-1,-1,-1,-1,-1,-1,-1,-1,-1,-1,-1,-1,-1,-1,-1],"loss_changes":[2.3919853E5,2.9688047E3,6.4448203E3,0E0,1.5647422E3,1.5333828E3,5.1710747E3,1.2069844E3,9.105044E2,4.197486E2,9.067422E2,1.0760796E3,1.8569573E3,5.6866406E2,0E0,3.0239746E1,0E0,0E0,0E0,2.7731567E3,1.9909375E2,5.618413E2,0E0,8.633208E2,1.7346449E3,2.3671875E2,0E0,0E0,0E0,1.6522302E2,7.951333E2,2.742422E2,1.5641603E3,0E0,4.4195557E2,1.0904941E2,0E0,0E0,2.4201611E2,0E0,1.42125E2,3.6732178E1,0E0,1.7713861E2,0E0,6.0859375E1,6.755994E2,0E0,3.0189606E2,3.9060815E2,7.7796484E2,0E0,0E0,0E0,3.7598145E1,6.9890625E1,5.6866785E2,0E0,1.558313E1,0E0,0E0,8.456088E2,5.6179688E1,0E0,2.0334656E1,0E0,8.958179E1,3.528286E2,0E0,8.056702E0,0E0,0E0,2.025647E1,4.4367188E1,0E0,0E0,2.5387299E1,9.446411E0,0E0,6.3089203E1,0E0,1.0238281E2,1.5873953E3,0E0,0E0,1.8307251E1,0E0,2.7393457E2,0E0,0E0,0E0,6.740967E0,0E0,0E0,3.7E1,0E0,0E0,0E0,0E0,0E0,0E0,5.8539062E1,9.018318E2,1.7419196E3,7.339297E2,0E0,0E0,2.1629004E2,0E0,0E0,0E0,0E0,0E0,0E0,0E0,0E0,0E0,0E0,0E0,0E0,0E0,0E0,0E0],"parents":[2147483647,0,0,1,1,2,2,4,4,5,5,6,6,7,7,8,8,9,9,10,10,11,11,12,12,13,13,15,15,19,19,20,20,21,21,23,23,24,24,25,25,29,29,30,30,31,31,32,32,34,34,35,35,38,38,40,40,41,41,43,43,45,45,46,46,48,48,49,49,50,50,54,54,55,55,56,56,58,58,61,61,62,62,64,64,66,66,67,67,69,69,72,72,73,73,76,76,77,77,79,79,81,81,82,82,85,85,87,87,91,91,94,94,101,101,102,102,103,103,104,104,107,107],"right_children":[2,4,6,-1,8,10,12,14,16,18,20,22,24,26,-1,28,-1,-1,-1,30,32,34,-1,36,38,40,-1,-1,-1,42,44,46,48,-1,50,52,-1,-1,54,-1,56,58,-1,60,-1,62,64,-1,66,68,70,-1,-1,-1,72,74,76,-1,78,-1,-1,80,82,-1,84,-1,86,88,-1,90,-1,-1,92,94,-1,-1,96,98,-1,100,-1,102,104,-1,-1,106,-1,108,-1,-1,-1,110,-1,-1,112,-1,-1,-1,-1,-1,-1,114,116,118,120,-1,-1,122,-1,-1,-1,-1,-1,-1,-1,-1,-1,-1,-1,-1,-1,-1,-1],"split_conditions":[-1.8675427E0,-5.373378E-1,1.7297868E0,-5E-2,9.80064E-1,-1.9094715E0,-9.076433E-2,1.0119544E0,-5.296081E-1,1.8951354E0,-1.2853122E0,7.604793E-1,7.504741E-1,5.06653E-1,-5E-2,1.4686525E0,-5E-2,-5E-2,5E-2,-1.5701054E0,1.8164634E0,-5.9542465E-1,-5E-2,-3.5532658E0,5.489235E-1,-4.065672E-1,-5E-2,-4.4265963E-2,5E-2,-3.6232728E-1,-3.5177857E-1,2.4441254E0,1.2384809E0,-5E-2,6.1051375E-1,-7.677297E-1,-5E-2,-5E-2,1.6292486E-2,-5E-2,5.07115E-1,-1.7348891E-1,-5E-2,-3.5532658E0,-5E-2,-2.6584058E0,1.2027749E0,-5E-2,3.8728097E-1,1.3561816E0,-1.1489492E-2,5E-2,-5E-2,-5E-2,-7.01798E-3,1.587343E0,1.3605126E0,-4.787418E-2,2.1050191E-1,5E-2,-5E-2,-1.2051466E0,1.3241848E0,-5E-2,8.2220525E-1,-5E-2,-1.3846701E-1,1.3283789E0,-5E-2,3.6822006E-1,-5E-2,-4.7895692E-2,1.1381637E-2,-1.5655156E0,-5E-2,-5E-2,9.365773E-1,-2.0139661E-1,-3.166631E-2,-1.1453038E0,-5E-2,2.1911042E0,-1.3920317E0,-3.6565527E-2,5E-2,-3.186315E-2,-5E-2,8.699383E-1,-5E-2,-2.100662E-2,5E-2,-2.1395595E-1,-3.6445674E-2,-5E-2,1.6451697E0,-4.091454E-2,5E-2,-2.3255875E-2,5E-2,5E-2,-5E-2,2.4944305E0,1.0346116E0,3.4139672E-1,-2.10262E0,-3.43414E-2,5E-2,1.7969394E0,-5E-2,5E-2,-1.8566048E-2,5E-2,-5E-2,-5E-2,-3.278125E-2,-5E-2,5E-2,-5E-2,5E-2,4.0886145E-2,-5E-2,-5E-2,5E-2],"split_indices":[14,4,4,0,1,17,8,10,4,2,20,21,11,3,0,0,0,0,0,13,23,23,0,25,1,4,0,0,0,6,29,7,15,0,1,16,0,0,27,0,12,4,0,25,0,19,10,0,26,14,7,0,0,0,5,0,13,0,10,0,0,14,17,0,0,0,17,3,0,2,0,0,0,11,0,0,1,10,0,9,0,15,14,0,0,11,0,27,0,0,0,20,0,0,24,0,0,0,0,0,0,26,7,15,8,0,0,4,0,0,0,0,0,0,0,0,0,0,0,0,0,0,0],"split_type":[0,0,0,0,0,0,0,0,0,0,0,0,0,0,0,0,0,0,0,0,0,0,0,0,0,0,0,0,0,0,0,0,0,0,0,0,0,0,0,0,0,0,0,0,0,0,0,0,0,0,0,0,0,0,0,0,0,0,0,0,0,0,0,0,0,0,0,0,0,0,0,0,0,0,0,0,0,0,0,0,0,0,0,0,0,0,0,0,0,0,0,0,0,0,0,0,0,0,0,0,0,0,0,0,0,0,0,0,0,0,0,0,0,0,0,0,0,0,0,0,0,0,0],"sum_hessian":[1.2303304E5,5.6127492E4,6.6905555E4,4.270687E2,5.570042E4,6.0513355E4,6.3921973E3,5.5196703E4,5.0371716E2,3.4442615E2,6.016893E4,3.3346912E3,3.057506E3,5.5022652E4,1.7405432E2,1.4680803E2,3.5690915E2,6.0886745E1,2.835394E2,1.663369E3,5.850556E4,3.1706597E3,1.6403152E2,2.1545183E3,9.0298773E2,5.494027E4,8.2382454E1,4.914319E0,1.418937E2,6.008554E2,1.0625137E3,5.765148E4,8.5407947E2,8.140462E1,3.089255E3,1.5802092E2,1.9964974E3,2.9115088E2,6.118368E2,3.471308E1,5.4905555E4,5.764096E2,2.4445831E1,1.677962E2,8.9471747E2,5.7365336E4,2.861437E2,5.0752106E2,3.4655844E2,2.7888503E3,3.004047E2,1.4164221E2,1.6378708E1,3.5452885E1,5.763839E2,5.466022E4,2.453379E2,5.891155E0,5.7051843E2,1.4163916E2,2.615704E1,4.4012277E2,5.6925215E4,1.412969E2,1.448468E2,4.401489E1,3.0254355E2,2.737202E3,5.164839E1,1.4286874E2,1.5753595E2,6.1123037E0,5.702716E2,5.464946E4,1.0756166E1,9.975216E1,1.4558574E2,5.678029E2,2.7154913E0,1.5117303E2,2.8894974E2,5.3660324E4,3.26489E3,3.4521012E0,1.413947E2,2.8907474E2,1.3468827E1,2.687387E3,4.9814854E1,1.4740458E0,1.413947E2,5.668222E2,3.4494362E0,7.089291E0,5.464237E4,4.19104E0,1.413947E2,1.730117E0,5.660728E2,1.413947E2,9.778333E0,5.3243547E4,4.1677844E2,7.9556616E2,2.4693237E3,3.1912365E0,2.8588348E2,2.6488357E3,3.8551422E1,5.655788E2,1.2433974E0,5.463712E4,5.25E0,5.2712832E4,5.3071295E2,2.6370374E2,1.530747E2,2.8725162E2,5.0831454E2,2.1863904E2,2.2506846E3,3.1779581E1,2.617056E3],"tree_param":{"num_deleted":"0","num_feature":"30","num_nodes":"123","size_leaf_vector":"1"}},{"base_weights":[6.716503E-3,1E0,-1E0,-5E-2,1E0,-1E0,-1.1168669E-4,1E0,-7.410041E-1,1E0,-1E0,8.3851236E-1,-9.150444E-1,1E0,-5E-2,1E0,-5E-2,-5E-2,5E-2,-2.5545487E-1,-1E0,9.698114E-1,-5E-2,-1E0,4.2784184E-1,1E0,-5E-2,5E-2,-4.340049E-2,1E0,-1E0,-1E0,-4.994585E-1,-5E-2,1E0,1E0,-5E-2,-5E-2,1E0,-5E-2,1E0,1E0,-5E-2,1E0,-5E-2,-1E0,-2.0389782E-2,-5E-2,1E0,1E0,-2.0798726E-1,5E-2,-5E-2,-5E-2,1E0,1E0,2.2738722E-1,-4.6749394E-2,1E0,5E-2,-5E-2,-1E0,-8.511162E-1,-5E-2,1E0,-5E-2,1E0,1E0,-5E-2,1E0,-5E-2,-4.6779927E-2,1E0,1E0,-5E-2,-5E-2,1E0,1E0,-3.274827E-2,-4.74842E-1,-1E0,1.5050422E-1,-1E0,-3.588785E-2,5E-2,1E0,-5E-2,1E0,-5E-2,-2.0777468E-2,5E-2,1E0,-3.5772007E-2,-4.981577E-2,1E0,-4.007732E-2,5E-2,5E-2,-2.106061E-2,1E0,-5E-2,-1E0,-4.8530895E-1,-5E-2,1E0,7.8948116E-1,-5E-2,-3.3738386E-2,5E-2,1E0,-5E-2,5E-2,-1.8386556E-2,5E-2,-4.995528E-2,5E-2,-4.399837E-2,-5E-2,-3.0005533E-2,-5E-2,5E-2,5E-2,-5E-2,5E-2,-5E-2,-5E-2,5E-2],"categories":[],"categories_nodes":[],"categories_segments":[],"categories_sizes":[],"default_left":[0,0,0,0,0,0,0,0,0,0,0,0,0,0,0,0,0,0,0,0,0,0,0,0,0,0,0,0,0,0,0,0,0,0,0,0,0,0,0,0,0,0,0,0,0,0,0,0,0,0,0,0,0,0,0,0,0,0,0,0,0,0,0,0,0,0,0,0,0,0,0,0,0,0,0,0,0,0,0,0,0,0,0,0,0,0,0,0,0,0,0,0,0,0,0,0,0,0,0,0,0,0,0,0,0,0,0,0,0,0,0,0,0,0,0,0,0,0,0,0,0,0,0,0,0,0,0],"id":7,"left_children":[1,3,5,-1,7,9,11,13,15,17,19,21,23,25,-1,27,-1,-1,-1,29,31,33,-1,35,37,39,-1,-1,-1,41,43,45,47,-1,49,51,-1,-1,53,-1,55,57,-1,59,-1,61,63,-1,65,67,69,-1,-1,-1,71,73,75,-1,77,-1,-1,79,81,-1,83,-1,85,87,-1,89,-1,-1,91,93,-1,-1,95,97,-1,99,101,103,105,-1,-1,107,-1,109,-1,-1,-1,111,-1,-1,113,-1,-1,-1,-1,115,-1,117,119,-1,121,123,-1,-1,-1,125,-1,-1,-1,-1,-1,-1,-1,-1,-1,-1,-1,-1,-1,-1,-1,-1,-1],"loss_changes":[2.2934319E5,2.8837188E3,6.3410234E3,0E0,1.5247656E3,1.4890391E3,4.874135E3,1.1723125E3,8.7938367E2,4.0791824E2,9.124844E2,1.0209558E3,1.809498E3,5.522344E2,0E0,2.9506775E1,0E0,0E0,0E0,2.661147E3,2.0888281E2,5.427529E2,0E0,8.383657E2,1.6695022E3,2.2980469E2,0E0,0E0,0E0,1.6035303E2,7.7212744E2,2.721953E2,1.5091624E3,0E0,4.3841772E2,1.0578647E2,0E0,0E0,2.3495312E2,0E0,1.4339062E2,3.5641113E1,0E0,1.7192769E2,0E0,6.816406E1,6.4998016E2,0E0,2.9312732E2,3.802942E2,7.500324E2,0E0,0E0,0E0,3.6457886E1,6.775781E1,5.475138E2,0E0,1.6765015E1,0E0,0E0,1.0414844E2,1.5434065E3,0E0,1.98927E1,0E0,8.689783E1,3.4289575E2,0E0,7.9664917E0,0E0,0E0,1.9816895E1,4.2960938E1,0E0,0E0,2.4760742E1,8.088501E0,0E0,8.0587695E2,1.06046875E2,2.3533755E3,7.0989575E2,0E0,0E0,1.7931335E1,0E0,2.6624658E2,0E0,0E0,0E0,6.6760254E0,0E0,0E0,3.5945312E1,0E0,0E0,0E0,0E0,3.152652E1,0E0,7.0390625E1,8.675934E2,0E0,7.091658E2,4.8980823E2,0E0,0E0,0E0,2.0995898E2,0E0,0E0,0E0,0E0,0E0,0E0,0E0,0E0,0E0,0E0,0E0,0E0,0E0,0E0,0E0,0E0,0E0],"parents":[2147483647,0,0,1,1,2,2,4,4,5,5,6,6,7,7,8,8,9,9,10,10,11,11,12,12,13,13,15,15,19,19,20,20,21,21,23,23,24,24,25,25,29,29,30,30,31,31,32,32,34,34,35,35,38,38,40,40,41,41,43,43,45,45,46,46,48,48,49,49,50,50,54,54,55,55,56,56,58,58,61,61,62,62,64,64,66,66,67,67,69,69,72,72,73,73,76,76,77,77,79,79,80,80,81,81,82,82,85,85,87,87,91,91,94,94,99,99,101,101,102,102,104,104,105,105,109,109],"right_children":[2,4,6,-1,8,10,12,14,16,18,20,22,24,26,-1,28,-1,-1,-1,30,32,34,-1,36,38,40,-1,-1,-1,42,44,46,48,-1,50,52,-1,-1,54,-1,56,58,-1,60,-1,62,64,-1,66,68,70,-1,-1,-1,72,74,76,-1,78,-1,-1,80,82,-1,84,-1,86,88,-1,90,-1,-1,92,94,-1,-1,96,98,-1,100,102,104,106,-1,-1,108,-1,110,-1,-1,-1,112,-1,-1,114,-1,-1,-1,-1,116,-1,118,120,-1,122,124,-1,-1,-1,126,-1,-1,-1,-1,-1,-1,-1,-1,-1,-1,-1,-1,-1,-1,-1,-1,-1],"split_conditions":[-1.8675427E0,-5.373378E-1,1.7297868E0,-5E-2,9.80064E-1,-1.9094715E0,-9.076433E-2,1.0119544E0,-5.296081E-1,1.8022078E0,-1.2853122E0,7.604793E-1,7.504741E-1,5.06653E-1,-5E-2,-3.63565E-1,-5E-2,-5E-2,5E-2,-1.5701054E0,1.8164634E0,-5.9542465E-1,-5E-2,-3.5532658E0,5.489235E-1,-4.065672E-1,-5E-2,5E-2,-4.340049E-2,-3.6232728E-1,-3.5177857E-1,2.4441254E0,1.2384809E0,-5E-2,6.1051375E-1,-7.677297E-1,-5E-2,-5E-2,1.6292486E-2,-5E-2,5.07115E-1,-3.1991887E-1,-5E-2,-3.5532658E0,-5E-2,1.3241848E0,1.2027749E0,-5E-2,3.8728097E-1,1.3561816E0,-1.1489492E-2,5E-2,-5E-2,-5E-2,-7.01798E-3,1.587343E0,1.3605126E0,-4.6749394E-2,2.1050191E-1,5E-2,-5E-2,-2.6584058E0,-1.0855842E0,-5E-2,8.2220525E-1,-5E-2,-1.3846701E-1,1.3283789E0,-5E-2,3.6822006E-1,-5E-2,-4.6779927E-2,1.1381637E-2,-1.5655156E0,-5E-2,-5E-2,9.365773E-1,-6.9691576E-2,-3.274827E-2,-1.2051466E0,2.1911042E0,3.4139672E-1,-2.10262E0,-3.588785E-2,5E-2,-3.186315E-2,-5E-2,8.699383E-1,-5E-2,-2.0777468E-2,5E-2,-2.1395595E-1,-3.5772007E-2,-4.981577E-2,1.6451697E0,-4.007732E-2,5E-2,5E-2,-2.106061E-2,-1.1453038E0,-5E-2,3.4930341E0,1.0346116E0,-5E-2,-3.0255738E-1,-2.2800918E0,-5E-2,-3.3738386E-2,5E-2,1.7969394E0,-5E-2,5E-2,-1.8386556E-2,5E-2,-4.995528E-2,5E-2,-4.399837E-2,-5E-2,-3.0005533E-2,-5E-2,5E-2,5E-2,-5E-2,5E-2,-5E-2,-5E-2,5E-2],"split_indices":[14,4,4,0,1,17,8,10,4,11,20,21,11,3,0,13,0,0,0,13,23,23,0,25,1,4,0,0,0,6,29,7,15,0,1,16,0,0,27,0,12,28,0,25,0,17,10,0,26,14,7,0,0,0,5,0,13,0,10,0,0,19,14,0,0,0,17,3,0,2,0,0,0,11,0,0,1,12,0,14,15,15,8,0,0,11,0,27,0,0,0,20,0,0,24,0,0,0,0,9,0,29,7,0,13,24,0,0,0,4,0,0,0,0,0,0,0,0,0,0,0,0,0,0,0,0,0],"split_type":[0,0,0,0,0,0,0,0,0,0,0,0,0,0,0,0,0,0,0,0,0,0,0,0,0,0,0,0,0,0,0,0,0,0,0,0,0,0,0,0,0,0,0,0,0,0,0,0,0,0,0,0,0,0,0,0,0,0,0,0,0,0,0,0,0,0,0,0,0,0,0,0,0,0,0,0,0,0,0,0,0,0,0,0,0,0,0,0,0,0,0,0,0,0,0,0,0,0,0,0,0,0,0,0,0,0,0,0,0,0,0,0,0,0,0,0,0,0,0,0,0,0,0,0,0,0,0],"sum_hessian":[1.22064555E5,5.567753E4,6.638702E4,4.2364294E2,5.525389E4,6.0044574E4,6.3424478E3,5.4754195E4,4.9969202E2,3.416744E2,5.97029E4,3.3094424E3,3.0330054E3,5.458154E4,1.7265814E2,1.4564581E2,3.540462E2,6.0403893E1,2.8127054E2,1.6500558E3,5.8052844E4,3.1467268E3,1.6271576E2,2.1372375E3,8.9576776E2,5.4499816E4,8.172163E1,1.4075696E2,4.888859E0,5.960651E2,1.0539907E3,5.720416E4,8.4868243E2,8.075163E1,3.065975E3,1.5675395E2,1.9804836E3,2.888156E2,6.0695215E2,3.443463E1,5.4465383E4,5.7181537E2,2.424974E1,1.6645021E2,8.8754047E2,5.69203E4,2.8386023E2,5.034551E2,3.4522733E2,2.7671047E3,2.9887042E2,1.4050664E2,1.6247326E1,3.5169678E1,5.717825E2,5.4221797E4,2.43585E2,5.8545003E0,5.659609E2,1.4050299E2,2.5947222E1,5.3625098E4,3.295204E3,1.401635E2,1.4369673E2,4.3664867E1,3.0156244E2,2.7156252E3,5.14794E1,1.417315E2,1.5713893E2,6.06561E0,5.6571686E2,5.421113E4,1.0669886E1,9.915487E1,1.4443015E2,5.630143E2,2.946584E0,3.907603E2,5.3234336E4,1.2200579E3,2.0751462E3,3.4362347E0,1.402605E2,2.8819577E2,1.3366691E1,2.6661243E3,4.950088E1,1.4710071E0,1.402605E2,5.622836E2,3.4332416E0,7.0324244E0,5.4204094E4,4.169644E0,1.402605E2,5.6153436E2,1.479934E0,1.4559544E2,2.4516487E2,5.2820098E4,4.142409E2,4.7535434E2,7.4470355E2,2.1824854E2,1.8568977E3,3.175616E0,2.8502014E2,2.6278E3,3.832418E1,5.61042E2,1.2416143E0,5.4198848E4,5.2467203E0,1.402605E2,5.334943E0,5.2353688E4,4.664079E2,2.617001E2,1.5254079E2,6.424874E2,1.0221612E2,1.4717923E2,7.106931E1,3.1524662E1,2.5962754E3],"tree_param":{"num_deleted":"0","num_feature":"30","num_nodes":"127","size_leaf_vector":"1"}}]},"name":"gbtree"},"learner_model_param":{"base_score":"[5E-1]","boost_from_average":"1","num_class":"0","num_feature":"30","num_target":"1"},"objective":{"name":"binary:logistic","reg_loss_param":{"scale_pos_weight":"578.400024"}}},"version":[3,1,3]}